/* Organism #20 Fitness: -144115890.318000 Time: 0 */
genomestart 20
trait 1 0.411762 0.000000 0.000000 0.831013 0.000000 0.000000 0.000000 0.718269 
node 1 1 1 1
node 2 1 1 1
node 3 1 1 1
node 4 1 1 1
node 5 1 1 1
node 6 1 1 1
node 7 1 1 1
node 8 1 1 1
node 9 1 1 1
node 10 1 1 1
node 11 1 1 1
node 12 1 1 1
node 13 1 1 1
node 14 1 1 1
node 15 1 1 1
node 16 1 1 1
node 17 1 1 1
node 18 1 1 1
node 19 1 1 1
node 20 1 1 1
node 21 1 1 1
node 22 1 1 1
node 23 1 1 1
node 24 1 1 1
node 25 1 1 1
node 26 1 1 1
node 27 1 1 1
node 28 1 1 1
node 29 1 1 1
node 30 1 1 3
node 31 1 0 2
node 32 1 0 2
node 33 1 0 2
gene 1 1 31 -2.86395 0 1 -2.86395 1
gene 1 1 32 1.5507 0 2 1.5507 1
gene 1 1 33 0.2629 0 3 0.2629 1
gene 1 2 31 2.32669 0 4 2.32669 1
gene 1 2 32 0.39191 0 5 0.39191 1
gene 1 2 33 0.548494 0 6 0.548494 1
gene 1 3 31 1.42897 0 7 1.42897 1
gene 1 3 32 -0.473756 0 8 -0.473756 1
gene 1 3 33 1.75812 0 9 1.75812 1
gene 1 4 31 3.0508 0 10 3.0508 1
gene 1 4 32 2.76245 0 11 2.76245 1
gene 1 4 33 1.42486 0 12 1.42486 1
gene 1 5 31 0.267401 0 13 0.267401 1
gene 1 5 32 0.982493 0 14 0.982493 1
gene 1 5 33 -1.47899 0 15 -1.47899 1
gene 1 6 31 0.952523 0 16 0.952523 1
gene 1 6 32 -1.01046 0 17 -1.01046 1
gene 1 6 33 -0.406093 0 18 -0.406093 1
gene 1 7 31 -0.183497 0 19 -0.183497 1
gene 1 7 32 0.591027 0 20 0.591027 1
gene 1 7 33 1.40465 0 21 1.40465 1
gene 1 8 31 1.9377 0 22 1.9377 1
gene 1 8 32 -1.18208 0 23 -1.18208 1
gene 1 8 33 0.30868 0 24 0.30868 1
gene 1 9 31 1.25786 0 25 1.25786 1
gene 1 9 32 0.799673 0 26 0.799673 1
gene 1 9 33 0.46404 0 27 0.46404 1
gene 1 10 31 0.153285 0 28 0.153285 1
gene 1 10 32 1.62008 0 29 1.62008 1
gene 1 10 33 -3.4077 0 30 -3.4077 1
gene 1 11 31 -1.16814 0 31 -1.16814 1
gene 1 11 32 0.0657822 0 32 0.0657822 1
gene 1 11 33 0.96779 0 33 0.96779 1
gene 1 12 31 -1.14312 0 34 -1.14312 1
gene 1 12 32 0.278749 0 35 0.278749 1
gene 1 12 33 0.627461 0 36 0.627461 1
gene 1 13 31 0.463445 0 37 0.463445 1
gene 1 13 32 1.33008 0 38 1.33008 1
gene 1 13 33 0.541997 0 39 0.541997 1
gene 1 14 31 2.54156 0 40 2.54156 1
gene 1 14 32 -1.2679 0 41 -1.2679 1
gene 1 14 33 0.933343 0 42 0.933343 1
gene 1 15 31 0.424791 0 43 0.424791 1
gene 1 15 32 0.272962 0 44 0.272962 1
gene 1 15 33 -2.27271 0 45 -2.27271 1
gene 1 16 31 -0.544711 0 46 -0.544711 1
gene 1 16 32 -0.727447 0 47 -0.727447 1
gene 1 16 33 0.95339 0 48 0.95339 1
gene 1 17 31 -2.35711 0 49 -2.35711 1
gene 1 17 32 -0.805734 0 50 -0.805734 1
gene 1 17 33 -1.53134 0 51 -1.53134 1
gene 1 18 31 -0.493401 0 52 -0.493401 1
gene 1 18 32 -2.90021 0 53 -2.90021 1
gene 1 18 33 -1.92682 0 54 -1.92682 1
gene 1 19 31 -0.341276 0 55 -0.341276 1
gene 1 19 32 0.913939 0 56 0.913939 1
gene 1 19 33 -0.46618 0 57 -0.46618 1
gene 1 20 31 -0.0384651 0 58 -0.0384651 1
gene 1 20 32 -0.701451 0 59 -0.701451 1
gene 1 20 33 1.31674 0 60 1.31674 1
gene 1 21 31 -0.55959 0 61 -0.55959 1
gene 1 21 32 -2.85452 0 62 -2.85452 1
gene 1 21 33 1.7906 0 63 1.7906 1
gene 1 22 31 -1.51748 0 64 -1.51748 1
gene 1 22 32 -0.0536513 0 65 -0.0536513 1
gene 1 22 33 -1.14611 0 66 -1.14611 1
gene 1 23 31 -1.11226 0 67 -1.11226 1
gene 1 23 32 -2.59785 0 68 -2.59785 1
gene 1 23 33 -0.638763 0 69 -0.638763 1
gene 1 24 31 -0.130542 0 70 -0.130542 1
gene 1 24 32 0.00351277 0 71 0.00351277 1
gene 1 24 33 -0.0968607 0 72 -0.0968607 1
gene 1 25 31 -0.0687952 0 73 -0.0687952 1
gene 1 25 32 -1.92417 0 74 -1.92417 1
gene 1 25 33 0.169397 0 75 0.169397 1
gene 1 26 31 1.19317 0 76 1.19317 1
gene 1 26 32 -1.1634 0 77 -1.1634 1
gene 1 26 33 1.25717 0 78 1.25717 1
gene 1 27 31 -0.802359 0 79 -0.802359 1
gene 1 27 32 1.00273 0 80 1.00273 1
gene 1 27 33 -0.586244 0 81 -0.586244 1
gene 1 28 31 0.408749 0 82 0.408749 1
gene 1 28 32 -2.0248 0 83 -2.0248 1
gene 1 28 33 -0.383086 0 84 -0.383086 1
gene 1 29 31 0.76899 0 85 0.76899 1
gene 1 29 32 -0.223601 0 86 -0.223601 1
gene 1 29 33 1.54875 0 87 1.54875 1
gene 1 30 31 0.645976 0 88 0.645976 1
gene 1 30 32 0.581048 0 89 0.581048 1
gene 1 30 33 -2.48674 0 90 -2.48674 1
genomeend 20


