/* Organism #16 Fitness: -145847692.332000 Time: 0 */
genomestart 16
trait 1 0.000000 0.000000 0.090401 0.000000 0.997454 0.026753 0.000000 0.243703 
node 1 1 1 1
node 2 1 1 1
node 3 1 1 1
node 4 1 1 1
node 5 1 1 1
node 6 1 1 1
node 7 1 1 1
node 8 1 1 1
node 9 1 1 1
node 10 1 1 1
node 11 1 1 1
node 12 1 1 1
node 13 1 1 1
node 14 1 1 1
node 15 1 1 1
node 16 1 1 1
node 17 1 1 1
node 18 1 1 1
node 19 1 1 1
node 20 1 1 1
node 21 1 1 1
node 22 1 1 1
node 23 1 1 1
node 24 1 1 1
node 25 1 1 1
node 26 1 1 1
node 27 1 1 1
node 28 1 1 1
node 29 1 1 1
node 30 1 1 3
node 31 1 0 2
node 32 1 0 2
node 33 1 0 2
gene 1 1 31 1.90569 0 1 1.90569 1
gene 1 1 32 -0.7061 0 2 -0.7061 1
gene 1 1 33 2.67881 0 3 2.67881 1
gene 1 2 31 0.214092 0 4 0.214092 1
gene 1 2 32 1.80685 0 5 1.80685 1
gene 1 2 33 0.602082 0 6 0.602082 1
gene 1 3 31 -1.73459 0 7 -1.73459 1
gene 1 3 32 -3.73132 0 8 -3.73132 1
gene 1 3 33 -0.957781 0 9 -0.957781 1
gene 1 4 31 0.529212 0 10 0.529212 1
gene 1 4 32 2.4416 0 11 2.4416 1
gene 1 4 33 0.149657 0 12 0.149657 1
gene 1 5 31 0.253139 0 13 0.253139 1
gene 1 5 32 2.59862 0 14 2.59862 1
gene 1 5 33 1.55229 0 15 1.55229 1
gene 1 6 31 1.1879 0 16 1.1879 1
gene 1 6 32 -1.49357 0 17 -1.49357 1
gene 1 6 33 -0.441557 0 18 -0.441557 1
gene 1 7 31 1.17595 0 19 1.17595 1
gene 1 7 32 1.83417 0 20 1.83417 1
gene 1 7 33 -0.696017 0 21 -0.696017 1
gene 1 8 31 0.394603 0 22 0.394603 1
gene 1 8 32 0.298952 0 23 0.298952 1
gene 1 8 33 -2.10744 0 24 -2.10744 1
gene 1 9 31 2.94725 0 25 2.94725 1
gene 1 9 32 -0.117789 0 26 -0.117789 1
gene 1 9 33 -4.39916 0 27 -4.39916 1
gene 1 10 31 1.62323 0 28 1.62323 1
gene 1 10 32 -0.755488 0 29 -0.755488 1
gene 1 10 33 1.98761 0 30 1.98761 1
gene 1 11 31 3.68267 0 31 3.68267 1
gene 1 11 32 -0.726153 0 32 -0.726153 1
gene 1 11 33 0.964939 0 33 0.964939 1
gene 1 12 31 -1.47294 0 34 -1.47294 1
gene 1 12 32 0.618858 0 35 0.618858 1
gene 1 12 33 -1.22127 0 36 -1.22127 1
gene 1 13 31 -1.58871 0 37 -1.58871 1
gene 1 13 32 4.31266 0 38 4.31266 1
gene 1 13 33 -1.43422 0 39 -1.43422 1
gene 1 14 31 0.0368224 0 40 0.0368224 1
gene 1 14 32 1.58849 0 41 1.58849 1
gene 1 14 33 2.80885 0 42 2.80885 1
gene 1 15 31 1.52907 0 43 1.52907 1
gene 1 15 32 -0.66228 0 44 -0.66228 1
gene 1 15 33 -2.1136 0 45 -2.1136 1
gene 1 16 31 -1.01357 0 46 -1.01357 1
gene 1 16 32 1.94576 0 47 1.94576 1
gene 1 16 33 1.90427 0 48 1.90427 1
gene 1 17 31 2.09134 0 49 2.09134 1
gene 1 17 32 2.68441 0 50 2.68441 1
gene 1 17 33 -3.39667 0 51 -3.39667 1
gene 1 18 31 -0.632313 0 52 -0.632313 1
gene 1 18 32 4.19612 0 53 4.19612 1
gene 1 18 33 -2.15811 0 54 -2.15811 1
gene 1 19 31 -2.39266 0 55 -2.39266 1
gene 1 19 32 -0.532718 0 56 -0.532718 1
gene 1 19 33 -0.726824 0 57 -0.726824 1
gene 1 20 31 -0.176275 0 58 -0.176275 1
gene 1 20 32 -0.0307937 0 59 -0.0307937 1
gene 1 20 33 -2.39113 0 60 -2.39113 1
gene 1 21 31 0.176571 0 61 0.176571 1
gene 1 21 32 -1.99416 0 62 -1.99416 1
gene 1 21 33 2.89275 0 63 2.89275 1
gene 1 22 31 -0.316277 0 64 -0.316277 1
gene 1 22 32 2.11041 0 65 2.11041 1
gene 1 22 33 1.24106 0 66 1.24106 1
gene 1 23 31 0.63699 0 67 0.63699 1
gene 1 23 32 -1.47816 0 68 -1.47816 1
gene 1 23 33 0.0641407 0 69 0.0641407 1
gene 1 24 31 -3.38644 0 70 -3.38644 1
gene 1 24 32 -0.260572 0 71 -0.260572 1
gene 1 24 33 0.0619522 0 72 0.0619522 1
gene 1 25 31 0.917484 0 73 0.917484 1
gene 1 25 32 -2.01302 0 74 -2.01302 1
gene 1 25 33 -2.97465 0 75 -2.97465 1
gene 1 26 31 0.816225 0 76 0.816225 1
gene 1 26 32 0.920362 0 77 0.920362 1
gene 1 26 33 -0.602897 0 78 -0.602897 1
gene 1 27 31 -1.64882 0 79 -1.64882 1
gene 1 27 32 0.402666 0 80 0.402666 1
gene 1 27 33 -0.419798 0 81 -0.419798 1
gene 1 28 31 0.920512 0 82 0.920512 1
gene 1 28 32 -1.30331 0 83 -1.30331 1
gene 1 28 33 -0.950629 0 84 -0.950629 1
gene 1 29 31 -0.111976 0 85 -0.111976 1
gene 1 29 32 0.628442 0 86 0.628442 1
gene 1 29 33 0.207605 0 87 0.207605 1
gene 1 30 31 1.54668 0 88 1.54668 1
gene 1 30 32 -0.0312058 0 89 -0.0312058 1
gene 1 30 33 1.3151 0 90 1.3151 1
genomeend 16


