/* Organism #6 Fitness: -145952334.910000 Time: 0 */
genomestart 6
trait 1 0.175384 0.000000 0.101899 0.000000 0.000000 0.400928 0.000000 0.394007 
node 1 1 1 1
node 2 1 1 1
node 3 1 1 1
node 4 1 1 1
node 5 1 1 1
node 6 1 1 1
node 7 1 1 1
node 8 1 1 1
node 9 1 1 1
node 10 1 1 1
node 11 1 1 1
node 12 1 1 1
node 13 1 1 1
node 14 1 1 1
node 15 1 1 1
node 16 1 1 1
node 17 1 1 1
node 18 1 1 1
node 19 1 1 1
node 20 1 1 1
node 21 1 1 1
node 22 1 1 1
node 23 1 1 1
node 24 1 1 1
node 25 1 1 1
node 26 1 1 1
node 27 1 1 1
node 28 1 1 1
node 29 1 1 1
node 30 1 1 3
node 31 1 0 2
node 32 1 0 2
node 33 1 0 2
gene 1 1 31 -0.996417 0 1 -0.996417 1
gene 1 1 32 -1.79118 0 2 -1.79118 1
gene 1 1 33 -2.40715 0 3 -2.40715 1
gene 1 2 31 -1.01857 0 4 -1.01857 1
gene 1 2 32 1.24396 0 5 1.24396 1
gene 1 2 33 2.02925 0 6 2.02925 1
gene 1 3 31 -2.67767 0 7 -2.67767 1
gene 1 3 32 -2.85203 0 8 -2.85203 1
gene 1 3 33 -1.34737 0 9 -1.34737 1
gene 1 4 31 0.242728 0 10 0.242728 1
gene 1 4 32 -2.78786 0 11 -2.78786 1
gene 1 4 33 0.605021 0 12 0.605021 1
gene 1 5 31 2.17902 0 13 2.17902 1
gene 1 5 32 -1.44069 0 14 -1.44069 1
gene 1 5 33 -2.9205 0 15 -2.9205 1
gene 1 6 31 -0.630678 0 16 -0.630678 1
gene 1 6 32 -0.879364 0 17 -0.879364 1
gene 1 6 33 2.83133 0 18 2.83133 1
gene 1 7 31 -2.30296 0 19 -2.30296 1
gene 1 7 32 -1.40229 0 20 -1.40229 1
gene 1 7 33 4.26993 0 21 4.26993 1
gene 1 8 31 -2.77143 0 22 -2.77143 1
gene 1 8 32 0.761204 0 23 0.761204 1
gene 1 8 33 1.22192 0 24 1.22192 1
gene 1 9 31 -0.106236 0 25 -0.106236 1
gene 1 9 32 0.0261829 0 26 0.0261829 1
gene 1 9 33 3.88808 0 27 3.88808 1
gene 1 10 31 -2.06605 0 28 -2.06605 1
gene 1 10 32 -1.75721 0 29 -1.75721 1
gene 1 10 33 3.04347 0 30 3.04347 1
gene 1 11 31 -1.99648 0 31 -1.99648 1
gene 1 11 32 0.200792 0 32 0.200792 1
gene 1 11 33 1.02765 0 33 1.02765 1
gene 1 12 31 2.86648 0 34 2.86648 1
gene 1 12 32 3.39167 0 35 3.39167 1
gene 1 12 33 1.36363 0 36 1.36363 1
gene 1 13 31 0.758943 0 37 0.758943 1
gene 1 13 32 2.56178 0 38 2.56178 1
gene 1 13 33 2.65784 0 39 2.65784 1
gene 1 14 31 -3.56934 0 40 -3.56934 1
gene 1 14 32 -0.951906 0 41 -0.951906 1
gene 1 14 33 0.177545 0 42 0.177545 1
gene 1 15 31 -5 0 43 -5 1
gene 1 15 32 -3.05506 0 44 -3.05506 1
gene 1 15 33 -0.683115 0 45 -0.683115 1
gene 1 16 31 -1.97567 0 46 -1.97567 1
gene 1 16 32 1.06835 0 47 1.06835 1
gene 1 16 33 0.783749 0 48 0.783749 1
gene 1 17 31 1.50322 0 49 1.50322 1
gene 1 17 32 1.37403 0 50 1.37403 1
gene 1 17 33 2.75365 0 51 2.75365 1
gene 1 18 31 -0.815564 0 52 -0.815564 1
gene 1 18 32 5 0 53 5 1
gene 1 18 33 4.34314 0 54 4.34314 1
gene 1 19 31 -2.75525 0 55 -2.75525 1
gene 1 19 32 -0.198386 0 56 -0.198386 1
gene 1 19 33 0.506616 0 57 0.506616 1
gene 1 20 31 0.94473 0 58 0.94473 1
gene 1 20 32 -1.77205 0 59 -1.77205 1
gene 1 20 33 0.537613 0 60 0.537613 1
gene 1 21 31 -2.94082 0 61 -2.94082 1
gene 1 21 32 0.944357 0 62 0.944357 1
gene 1 21 33 -0.0435752 0 63 -0.0435752 1
gene 1 22 31 1.44529 0 64 1.44529 1
gene 1 22 32 1.77184 0 65 1.77184 1
gene 1 22 33 -1.74719 0 66 -1.74719 1
gene 1 23 31 3.26558 0 67 3.26558 1
gene 1 23 32 2.05089 0 68 2.05089 1
gene 1 23 33 -2.62919 0 69 -2.62919 1
gene 1 24 31 -0.614164 0 70 -0.614164 1
gene 1 24 32 -0.164723 0 71 -0.164723 1
gene 1 24 33 3.12377 0 72 3.12377 1
gene 1 25 31 4.08823 0 73 4.08823 1
gene 1 25 32 0.327135 0 74 0.327135 1
gene 1 25 33 -0.825906 0 75 -0.825906 1
gene 1 26 31 -0.298557 0 76 -0.298557 1
gene 1 26 32 -0.121466 0 77 -0.121466 1
gene 1 26 33 -1.00673 0 78 -1.00673 1
gene 1 27 31 -1.76529 0 79 -1.76529 1
gene 1 27 32 -0.728352 0 80 -0.728352 1
gene 1 27 33 -0.269499 0 81 -0.269499 1
gene 1 28 31 0.43988 0 82 0.43988 1
gene 1 28 32 0.133826 0 83 0.133826 1
gene 1 28 33 -0.325759 0 84 -0.325759 1
gene 1 29 31 0.407178 0 85 0.407178 1
gene 1 29 32 0.787918 0 86 0.787918 1
gene 1 29 33 -0.459085 0 87 -0.459085 1
gene 1 30 31 -0.426651 0 88 -0.426651 1
gene 1 30 32 0.0830912 0 89 0.0830912 1
gene 1 30 33 0.410568 0 90 0.410568 1
genomeend 6


