/* Organism #22 Fitness: -145574951.682000 Time: 0 */
genomestart 22
trait 1 0.000000 0.028876 0.043075 0.891963 0.705517 0.000000 0.668428 0.512489 
node 1 1 1 1
node 2 1 1 1
node 3 1 1 1
node 4 1 1 1
node 5 1 1 1
node 6 1 1 1
node 7 1 1 1
node 8 1 1 1
node 9 1 1 1
node 10 1 1 1
node 11 1 1 1
node 12 1 1 1
node 13 1 1 1
node 14 1 1 1
node 15 1 1 1
node 16 1 1 1
node 17 1 1 1
node 18 1 1 1
node 19 1 1 1
node 20 1 1 1
node 21 1 1 1
node 22 1 1 1
node 23 1 1 1
node 24 1 1 1
node 25 1 1 1
node 26 1 1 1
node 27 1 1 1
node 28 1 1 1
node 29 1 1 1
node 30 1 1 3
node 31 1 0 2
node 32 1 0 2
node 33 1 0 2
gene 1 1 31 0.615737 0 1 0.615737 1
gene 1 1 32 0.738739 0 2 0.738739 1
gene 1 1 33 0.408283 0 3 0.408283 1
gene 1 2 31 0.872601 0 4 0.872601 1
gene 1 2 32 -2.79396 0 5 -2.79396 1
gene 1 2 33 2.93617 0 6 2.93617 1
gene 1 3 31 -0.946988 0 7 -0.946988 1
gene 1 3 32 0.61282 0 8 0.61282 1
gene 1 3 33 0.215576 0 9 0.215576 1
gene 1 4 31 0.789698 0 10 0.789698 1
gene 1 4 32 2.29844 0 11 2.29844 1
gene 1 4 33 1.44003 0 12 1.44003 1
gene 1 5 31 0.548957 0 13 0.548957 1
gene 1 5 32 0.698755 0 14 0.698755 1
gene 1 5 33 -1.97833 0 15 -1.97833 1
gene 1 6 31 0.262722 0 16 0.262722 1
gene 1 6 32 -1.89865 0 17 -1.89865 1
gene 1 6 33 -1.30302 0 18 -1.30302 1
gene 1 7 31 -0.423441 0 19 -0.423441 1
gene 1 7 32 2.04501 0 20 2.04501 1
gene 1 7 33 2.23417 0 21 2.23417 1
gene 1 8 31 -0.911738 0 22 -0.911738 1
gene 1 8 32 -0.128339 0 23 -0.128339 1
gene 1 8 33 -0.659602 0 24 -0.659602 1
gene 1 9 31 0.234003 0 25 0.234003 1
gene 1 9 32 0.372043 0 26 0.372043 1
gene 1 9 33 2.06218 0 27 2.06218 1
gene 1 10 31 -0.844004 0 28 -0.844004 1
gene 1 10 32 0.346689 0 29 0.346689 1
gene 1 10 33 1.93621 0 30 1.93621 1
gene 1 11 31 -0.327537 0 31 -0.327537 1
gene 1 11 32 0.0162662 0 32 0.0162662 1
gene 1 11 33 1.49913 0 33 1.49913 1
gene 1 12 31 0.561753 0 34 0.561753 1
gene 1 12 32 -0.568564 0 35 -0.568564 1
gene 1 12 33 -0.145746 0 36 -0.145746 1
gene 1 13 31 0.497431 0 37 0.497431 1
gene 1 13 32 -1.09437 0 38 -1.09437 1
gene 1 13 33 -0.300597 0 39 -0.300597 1
gene 1 14 31 0.480411 0 40 0.480411 1
gene 1 14 32 -0.404528 0 41 -0.404528 1
gene 1 14 33 0.77874 0 42 0.77874 1
gene 1 15 31 4.80061 0 43 4.80061 1
gene 1 15 32 0.441956 0 44 0.441956 1
gene 1 15 33 -1.09215 0 45 -1.09215 1
gene 1 16 31 -0.657594 0 46 -0.657594 1
gene 1 16 32 1.0522 0 47 1.0522 1
gene 1 16 33 1.64305 0 48 1.64305 1
gene 1 17 31 -4.82234 0 49 -4.82234 1
gene 1 17 32 -0.87593 0 50 -0.87593 1
gene 1 17 33 -1.48953 0 51 -1.48953 1
gene 1 18 31 1.66416 0 52 1.66416 1
gene 1 18 32 1.95415 0 53 1.95415 1
gene 1 18 33 -0.802104 0 54 -0.802104 1
gene 1 19 31 -1.8965 0 55 -1.8965 1
gene 1 19 32 -0.803415 0 56 -0.803415 1
gene 1 19 33 0.239543 0 57 0.239543 1
gene 1 20 31 0.532385 0 58 0.532385 1
gene 1 20 32 -1.90811 0 59 -1.90811 1
gene 1 20 33 1.00735 0 60 1.00735 1
gene 1 21 31 -0.988106 0 61 -0.988106 1
gene 1 21 32 -0.692153 0 62 -0.692153 1
gene 1 21 33 0.274462 0 63 0.274462 1
gene 1 22 31 1.25588 0 64 1.25588 1
gene 1 22 32 -0.497065 0 65 -0.497065 1
gene 1 22 33 -0.512904 0 66 -0.512904 1
gene 1 23 31 -0.0858536 0 67 -0.0858536 1
gene 1 23 32 0.970968 0 68 0.970968 1
gene 1 23 33 -0.600768 0 69 -0.600768 1
gene 1 24 31 -0.221131 0 70 -0.221131 1
gene 1 24 32 0.556678 0 71 0.556678 1
gene 1 24 33 -1.89662 0 72 -1.89662 1
gene 1 25 31 0.664465 0 73 0.664465 1
gene 1 25 32 0.541075 0 74 0.541075 1
gene 1 25 33 0.716719 0 75 0.716719 1
gene 1 26 31 -4.26575 0 76 -4.26575 1
gene 1 26 32 1.65833 0 77 1.65833 1
gene 1 26 33 -0.733351 0 78 -0.733351 1
gene 1 27 31 -0.22684 0 79 -0.22684 1
gene 1 27 32 -3.4585 0 80 -3.4585 1
gene 1 27 33 -0.782383 0 81 -0.782383 1
gene 1 28 31 -2.50886 0 82 -2.50886 1
gene 1 28 32 2.18474 0 83 2.18474 1
gene 1 28 33 0.729322 0 84 0.729322 1
gene 1 29 31 -1.45102 0 85 -1.45102 1
gene 1 29 32 -0.599639 0 86 -0.599639 1
gene 1 29 33 3.207 0 87 3.207 1
gene 1 30 31 -0.576893 0 88 -0.576893 1
gene 1 30 32 0.283563 0 89 0.283563 1
gene 1 30 33 0.428653 0 90 0.428653 1
genomeend 22


