/* Organism #14 Fitness: -142810399.074000 Time: 0 */
genomestart 14
trait 1 1.000000 0.000000 1.000000 0.007240 1.000000 0.000000 0.310758 0.000000 
node 1 1 1 1
node 2 1 1 1
node 3 1 1 1
node 4 1 1 1
node 5 1 1 1
node 6 1 1 1
node 7 1 1 1
node 8 1 1 1
node 9 1 1 1
node 10 1 1 1
node 11 1 1 1
node 12 1 1 1
node 13 1 1 1
node 14 1 1 1
node 15 1 1 1
node 16 1 1 1
node 17 1 1 1
node 18 1 1 1
node 19 1 1 1
node 20 1 1 1
node 21 1 1 1
node 22 1 1 1
node 23 1 1 1
node 24 1 1 1
node 25 1 1 1
node 26 1 1 1
node 27 1 1 1
node 28 1 1 1
node 29 1 1 1
node 30 1 1 3
node 31 1 0 2
node 32 1 0 2
node 33 1 0 2
gene 1 1 31 0.4642 0 1 0.4642 1
gene 1 1 32 0.517621 0 2 0.517621 1
gene 1 1 33 0.600624 0 3 0.600624 1
gene 1 2 31 -2.4713 0 4 -2.4713 1
gene 1 2 32 0.751355 0 5 0.751355 1
gene 1 2 33 -0.231045 0 6 -0.231045 1
gene 1 3 31 0.286677 0 7 0.286677 1
gene 1 3 32 0.857936 0 8 0.857936 1
gene 1 3 33 0.0482816 0 9 0.0482816 1
gene 1 4 31 1.16582 0 10 1.16582 1
gene 1 4 32 -0.130158 0 11 -0.130158 1
gene 1 4 33 -0.282694 0 12 -0.282694 1
gene 1 5 31 -0.26774 0 13 -0.26774 1
gene 1 5 32 -0.872811 0 14 -0.872811 1
gene 1 5 33 4.86105 0 15 4.86105 1
gene 1 6 31 0.0282554 0 16 0.0282554 1
gene 1 6 32 1.16202 0 17 1.16202 1
gene 1 6 33 -1.2847 0 18 -1.2847 1
gene 1 7 31 0.176852 0 19 0.176852 1
gene 1 7 32 -2.97489 0 20 -2.97489 1
gene 1 7 33 -1.76802 0 21 -1.76802 1
gene 1 8 31 4.95654 0 22 4.95654 1
gene 1 8 32 -0.347919 0 23 -0.347919 1
gene 1 8 33 -0.301327 0 24 -0.301327 1
gene 1 9 31 0.723757 0 25 0.723757 1
gene 1 9 32 -4.46031 0 26 -4.46031 1
gene 1 9 33 -0.940472 0 27 -0.940472 1
gene 1 10 31 0.721548 0 28 0.721548 1
gene 1 10 32 0.577239 0 29 0.577239 1
gene 1 10 33 2.46377 0 30 2.46377 1
gene 1 11 31 -2.01764 0 31 -2.01764 1
gene 1 11 32 -1.73878 0 32 -1.73878 1
gene 1 11 33 1.52353 0 33 1.52353 1
gene 1 12 31 -2.97737 0 34 -2.97737 1
gene 1 12 32 -3.33182 0 35 -3.33182 1
gene 1 12 33 -0.732903 0 36 -0.732903 1
gene 1 13 31 -0.346713 0 37 -0.346713 1
gene 1 13 32 -1.20394 0 38 -1.20394 1
gene 1 13 33 0.559693 0 39 0.559693 1
gene 1 14 31 -0.282158 0 40 -0.282158 1
gene 1 14 32 -0.856697 0 41 -0.856697 1
gene 1 14 33 0.941657 0 42 0.941657 1
gene 1 15 31 0.135065 0 43 0.135065 1
gene 1 15 32 0.271956 0 44 0.271956 1
gene 1 15 33 0.818043 0 45 0.818043 1
gene 1 16 31 0.826314 0 46 0.826314 1
gene 1 16 32 -0.692307 0 47 -0.692307 1
gene 1 16 33 1.19994 0 48 1.19994 1
gene 1 17 31 -3.02971 0 49 -3.02971 1
gene 1 17 32 -0.100449 0 50 -0.100449 1
gene 1 17 33 -0.408388 0 51 -0.408388 1
gene 1 18 31 0.155732 0 52 0.155732 1
gene 1 18 32 -3.40808 0 53 -3.40808 1
gene 1 18 33 -0.953539 0 54 -0.953539 1
gene 1 19 31 -0.035701 0 55 -0.035701 1
gene 1 19 32 -1.38292 0 56 -1.38292 1
gene 1 19 33 -0.167107 0 57 -0.167107 1
gene 1 20 31 0.266745 0 58 0.266745 1
gene 1 20 32 1.03514 0 59 1.03514 1
gene 1 20 33 1.12351 0 60 1.12351 1
gene 1 21 31 -0.52035 0 61 -0.52035 1
gene 1 21 32 0.403589 0 62 0.403589 1
gene 1 21 33 -0.13137 0 63 -0.13137 1
gene 1 22 31 -0.515736 0 64 -0.515736 1
gene 1 22 32 -0.00302631 0 65 -0.00302631 1
gene 1 22 33 1.64904 0 66 1.64904 1
gene 1 23 31 1.58062 0 67 1.58062 1
gene 1 23 32 -2.60505 0 68 -2.60505 1
gene 1 23 33 1.37024 0 69 1.37024 1
gene 1 24 31 0.202147 0 70 0.202147 1
gene 1 24 32 0.902666 0 71 0.902666 1
gene 1 24 33 -0.355012 0 72 -0.355012 1
gene 1 25 31 -1.92046 0 73 -1.92046 1
gene 1 25 32 0.69019 0 74 0.69019 1
gene 1 25 33 1.49817 0 75 1.49817 1
gene 1 26 31 0.718923 0 76 0.718923 1
gene 1 26 32 -2.74773 0 77 -2.74773 1
gene 1 26 33 0.538045 0 78 0.538045 1
gene 1 27 31 0.167151 0 79 0.167151 1
gene 1 27 32 -1.64425 0 80 -1.64425 1
gene 1 27 33 1.58626 0 81 1.58626 1
gene 1 28 31 0.625184 0 82 0.625184 1
gene 1 28 32 -0.130952 0 83 -0.130952 1
gene 1 28 33 -0.577695 0 84 -0.577695 1
gene 1 29 31 0.0781382 0 85 0.0781382 1
gene 1 29 32 1.82199 0 86 1.82199 1
gene 1 29 33 4.83637 0 87 4.83637 1
gene 1 30 31 0.503631 0 88 0.503631 1
gene 1 30 32 -0.364532 0 89 -0.364532 1
gene 1 30 33 0.395108 0 90 0.395108 1
genomeend 14


