/* Organism #9 Fitness: -145225707.000000 Time: 0 */
genomestart 9
trait 1 0.005312 0.000000 0.225022 1.000000 0.086804 0.666797 0.000000 0.317910 
node 1 1 1 1
node 2 1 1 1
node 3 1 1 1
node 4 1 1 1
node 5 1 1 1
node 6 1 1 1
node 7 1 1 1
node 8 1 1 1
node 9 1 1 1
node 10 1 1 1
node 11 1 1 1
node 12 1 1 1
node 13 1 1 1
node 14 1 1 1
node 15 1 1 1
node 16 1 1 1
node 17 1 1 1
node 18 1 1 1
node 19 1 1 1
node 20 1 1 1
node 21 1 1 1
node 22 1 1 1
node 23 1 1 1
node 24 1 1 1
node 25 1 1 1
node 26 1 1 1
node 27 1 1 1
node 28 1 1 1
node 29 1 1 1
node 30 1 1 3
node 31 1 0 2
node 32 1 0 2
node 33 1 0 2
gene 1 1 31 0.15869 0 1 0.15869 1
gene 1 1 32 -3.63988 0 2 -3.63988 1
gene 1 1 33 0.639598 0 3 0.639598 1
gene 1 2 31 0.665796 0 4 0.665796 1
gene 1 2 32 -0.690405 0 5 -0.690405 1
gene 1 2 33 0.554904 0 6 0.554904 1
gene 1 3 31 1.27227 0 7 1.27227 1
gene 1 3 32 1.22667 0 8 1.22667 1
gene 1 3 33 1.7667 0 9 1.7667 1
gene 1 4 31 -0.631255 0 10 -0.631255 1
gene 1 4 32 0.504897 0 11 0.504897 1
gene 1 4 33 4.04931 0 12 4.04931 1
gene 1 5 31 4.58932 0 13 4.58932 1
gene 1 5 32 -1.56907 0 14 -1.56907 1
gene 1 5 33 -1.48544 0 15 -1.48544 1
gene 1 6 31 -2.54158 0 16 -2.54158 1
gene 1 6 32 -1.45244 0 17 -1.45244 1
gene 1 6 33 -1.15758 0 18 -1.15758 1
gene 1 7 31 0.583255 0 19 0.583255 1
gene 1 7 32 -0.316884 0 20 -0.316884 1
gene 1 7 33 1.22621 0 21 1.22621 1
gene 1 8 31 0.380156 0 22 0.380156 1
gene 1 8 32 -1.53175 0 23 -1.53175 1
gene 1 8 33 -1.54533 0 24 -1.54533 1
gene 1 9 31 -3.61311 0 25 -3.61311 1
gene 1 9 32 0.278685 0 26 0.278685 1
gene 1 9 33 0.1584 0 27 0.1584 1
gene 1 10 31 -0.198759 0 28 -0.198759 1
gene 1 10 32 -2.94718 0 29 -2.94718 1
gene 1 10 33 -0.325844 0 30 -0.325844 1
gene 1 11 31 1.78138 0 31 1.78138 1
gene 1 11 32 -0.0431822 0 32 -0.0431822 1
gene 1 11 33 0.566814 0 33 0.566814 1
gene 1 12 31 -1.12534 0 34 -1.12534 1
gene 1 12 32 -0.131706 0 35 -0.131706 1
gene 1 12 33 -0.371927 0 36 -0.371927 1
gene 1 13 31 -1.87896 0 37 -1.87896 1
gene 1 13 32 -1.83229 0 38 -1.83229 1
gene 1 13 33 0.092121 0 39 0.092121 1
gene 1 14 31 0.237772 0 40 0.237772 1
gene 1 14 32 -0.372638 0 41 -0.372638 1
gene 1 14 33 -2.34211 0 42 -2.34211 1
gene 1 15 31 0.839548 0 43 0.839548 1
gene 1 15 32 0.0787572 0 44 0.0787572 1
gene 1 15 33 1.46432 0 45 1.46432 1
gene 1 16 31 -1.98801 0 46 -1.98801 1
gene 1 16 32 -0.980152 0 47 -0.980152 1
gene 1 16 33 1.36563 0 48 1.36563 1
gene 1 17 31 0.793438 0 49 0.793438 1
gene 1 17 32 -0.662718 0 50 -0.662718 1
gene 1 17 33 -0.600384 0 51 -0.600384 1
gene 1 18 31 -0.790028 0 52 -0.790028 1
gene 1 18 32 -0.801468 0 53 -0.801468 1
gene 1 18 33 2.15494 0 54 2.15494 1
gene 1 19 31 0.233666 0 55 0.233666 1
gene 1 19 32 1.77591 0 56 1.77591 1
gene 1 19 33 1.06084 0 57 1.06084 1
gene 1 20 31 1.16514 0 58 1.16514 1
gene 1 20 32 0.165034 0 59 0.165034 1
gene 1 20 33 0.490669 0 60 0.490669 1
gene 1 21 31 -0.0432957 0 61 -0.0432957 1
gene 1 21 32 -0.827554 0 62 -0.827554 1
gene 1 21 33 -0.928911 0 63 -0.928911 1
gene 1 22 31 2.80471 0 64 2.80471 1
gene 1 22 32 -1.86052 0 65 -1.86052 1
gene 1 22 33 0.195643 0 66 0.195643 1
gene 1 23 31 -2.82479 0 67 -2.82479 1
gene 1 23 32 -0.108854 0 68 -0.108854 1
gene 1 23 33 -0.212899 0 69 -0.212899 1
gene 1 24 31 0.318652 0 70 0.318652 1
gene 1 24 32 0.871759 0 71 0.871759 1
gene 1 24 33 3.20227 0 72 3.20227 1
gene 1 25 31 -0.506958 0 73 -0.506958 1
gene 1 25 32 0.192236 0 74 0.192236 1
gene 1 25 33 0.392451 0 75 0.392451 1
gene 1 26 31 3.19725 0 76 3.19725 1
gene 1 26 32 0.0522865 0 77 0.0522865 1
gene 1 26 33 0.398747 0 78 0.398747 1
gene 1 27 31 -0.0857734 0 79 -0.0857734 1
gene 1 27 32 -0.899081 0 80 -0.899081 1
gene 1 27 33 0.466038 0 81 0.466038 1
gene 1 28 31 0.293907 0 82 0.293907 1
gene 1 28 32 -0.331306 0 83 -0.331306 1
gene 1 28 33 -0.259004 0 84 -0.259004 1
gene 1 29 31 1.25236 0 85 1.25236 1
gene 1 29 32 -0.659008 0 86 -0.659008 1
gene 1 29 33 -0.953525 0 87 -0.953525 1
gene 1 30 31 1.73435 0 88 1.73435 1
gene 1 30 32 -0.860192 0 89 -0.860192 1
gene 1 30 33 -1.29478 0 90 -1.29478 1
genomeend 9


