/* Organism #12 Fitness: -144560662.676000 Time: 0 */
genomestart 12
trait 1 0.233231 1.000000 0.000000 0.000000 1.000000 1.000000 0.000000 0.000000 
node 1 1 1 1
node 2 1 1 1
node 3 1 1 1
node 4 1 1 1
node 5 1 1 1
node 6 1 1 1
node 7 1 1 1
node 8 1 1 1
node 9 1 1 1
node 10 1 1 1
node 11 1 1 1
node 12 1 1 1
node 13 1 1 1
node 14 1 1 1
node 15 1 1 1
node 16 1 1 1
node 17 1 1 1
node 18 1 1 1
node 19 1 1 1
node 20 1 1 1
node 21 1 1 1
node 22 1 1 1
node 23 1 1 1
node 24 1 1 1
node 25 1 1 1
node 26 1 1 1
node 27 1 1 1
node 28 1 1 1
node 29 1 1 1
node 30 1 1 3
node 31 1 0 2
node 32 1 0 2
node 33 1 0 2
gene 1 1 31 -0.305409 0 1 -0.305409 1
gene 1 1 32 -2.76395 0 2 -2.76395 1
gene 1 1 33 1.0606 0 3 1.0606 1
gene 1 2 31 0.822026 0 4 0.822026 1
gene 1 2 32 -0.0995394 0 5 -0.0995394 1
gene 1 2 33 1.18189 0 6 1.18189 1
gene 1 3 31 -2.04021 0 7 -2.04021 1
gene 1 3 32 -0.865531 0 8 -0.865531 1
gene 1 3 33 -1.8507 0 9 -1.8507 1
gene 1 4 31 -2.72601 0 10 -2.72601 1
gene 1 4 32 -2.23896 0 11 -2.23896 1
gene 1 4 33 -0.256782 0 12 -0.256782 1
gene 1 5 31 -0.886039 0 13 -0.886039 1
gene 1 5 32 3.60754 0 14 3.60754 1
gene 1 5 33 2.26535 0 15 2.26535 1
gene 1 6 31 0.724911 0 16 0.724911 1
gene 1 6 32 -1.85853 0 17 -1.85853 1
gene 1 6 33 4.90357 0 18 4.90357 1
gene 1 7 31 -0.429307 0 19 -0.429307 1
gene 1 7 32 1.24356 0 20 1.24356 1
gene 1 7 33 -1.3625 0 21 -1.3625 1
gene 1 8 31 3.89541 0 22 3.89541 1
gene 1 8 32 1.66032 0 23 1.66032 1
gene 1 8 33 -3.05122 0 24 -3.05122 1
gene 1 9 31 -0.467924 0 25 -0.467924 1
gene 1 9 32 -1.85913 0 26 -1.85913 1
gene 1 9 33 3.83393 0 27 3.83393 1
gene 1 10 31 2.9592 0 28 2.9592 1
gene 1 10 32 -0.561425 0 29 -0.561425 1
gene 1 10 33 -1.63746 0 30 -1.63746 1
gene 1 11 31 -0.733002 0 31 -0.733002 1
gene 1 11 32 -0.855541 0 32 -0.855541 1
gene 1 11 33 0.911645 0 33 0.911645 1
gene 1 12 31 1.03781 0 34 1.03781 1
gene 1 12 32 -0.991208 0 35 -0.991208 1
gene 1 12 33 -0.352092 0 36 -0.352092 1
gene 1 13 31 1.55271 0 37 1.55271 1
gene 1 13 32 -1.87246 0 38 -1.87246 1
gene 1 13 33 -0.398978 0 39 -0.398978 1
gene 1 14 31 0.624347 0 40 0.624347 1
gene 1 14 32 1.01444 0 41 1.01444 1
gene 1 14 33 1.56315 0 42 1.56315 1
gene 1 15 31 0.357646 0 43 0.357646 1
gene 1 15 32 -0.63726 0 44 -0.63726 1
gene 1 15 33 1.56601 0 45 1.56601 1
gene 1 16 31 0.802424 0 46 0.802424 1
gene 1 16 32 1.26579 0 47 1.26579 1
gene 1 16 33 0.892905 0 48 0.892905 1
gene 1 17 31 -0.149376 0 49 -0.149376 1
gene 1 17 32 1.40925 0 50 1.40925 1
gene 1 17 33 -1.22896 0 51 -1.22896 1
gene 1 18 31 -0.398351 0 52 -0.398351 1
gene 1 18 32 0.312075 0 53 0.312075 1
gene 1 18 33 0.848314 0 54 0.848314 1
gene 1 19 31 -0.298589 0 55 -0.298589 1
gene 1 19 32 -0.81174 0 56 -0.81174 1
gene 1 19 33 1.04934 0 57 1.04934 1
gene 1 20 31 2.1994 0 58 2.1994 1
gene 1 20 32 -0.233477 0 59 -0.233477 1
gene 1 20 33 0.518726 0 60 0.518726 1
gene 1 21 31 -1.42953 0 61 -1.42953 1
gene 1 21 32 0.774889 0 62 0.774889 1
gene 1 21 33 -1.10829 0 63 -1.10829 1
gene 1 22 31 -1.19891 0 64 -1.19891 1
gene 1 22 32 3.13712 0 65 3.13712 1
gene 1 22 33 -1.66587 0 66 -1.66587 1
gene 1 23 31 -0.0447656 0 67 -0.0447656 1
gene 1 23 32 -1.04932 0 68 -1.04932 1
gene 1 23 33 -0.932712 0 69 -0.932712 1
gene 1 24 31 0.864666 0 70 0.864666 1
gene 1 24 32 0.810184 0 71 0.810184 1
gene 1 24 33 -0.0255844 0 72 -0.0255844 1
gene 1 25 31 0.660737 0 73 0.660737 1
gene 1 25 32 0.152468 0 74 0.152468 1
gene 1 25 33 0.622428 0 75 0.622428 1
gene 1 26 31 -1.49944 0 76 -1.49944 1
gene 1 26 32 -0.372774 0 77 -0.372774 1
gene 1 26 33 -0.165022 0 78 -0.165022 1
gene 1 27 31 0.630804 0 79 0.630804 1
gene 1 27 32 -0.0562234 0 80 -0.0562234 1
gene 1 27 33 -0.555398 0 81 -0.555398 1
gene 1 28 31 0.463015 0 82 0.463015 1
gene 1 28 32 -0.858636 0 83 -0.858636 1
gene 1 28 33 0.831506 0 84 0.831506 1
gene 1 29 31 -0.822464 0 85 -0.822464 1
gene 1 29 32 -1.85233 0 86 -1.85233 1
gene 1 29 33 0.39688 0 87 0.39688 1
gene 1 30 31 -0.773792 0 88 -0.773792 1
gene 1 30 32 0.0332711 0 89 0.0332711 1
gene 1 30 33 0.455184 0 90 0.455184 1
genomeend 12


