/* Organism #15 Fitness: -144500369.568000 Time: 0 */
genomestart 15
trait 1 0.493416 0.000000 0.000000 0.485923 0.481663 0.000000 0.254374 0.711115 
node 1 1 1 1
node 2 1 1 1
node 3 1 1 1
node 4 1 1 1
node 5 1 1 1
node 6 1 1 1
node 7 1 1 1
node 8 1 1 1
node 9 1 1 1
node 10 1 1 1
node 11 1 1 1
node 12 1 1 1
node 13 1 1 1
node 14 1 1 1
node 15 1 1 1
node 16 1 1 1
node 17 1 1 1
node 18 1 1 1
node 19 1 1 1
node 20 1 1 1
node 21 1 1 1
node 22 1 1 1
node 23 1 1 1
node 24 1 1 1
node 25 1 1 1
node 26 1 1 1
node 27 1 1 1
node 28 1 1 1
node 29 1 1 1
node 30 1 1 3
node 31 1 0 2
node 32 1 0 2
node 33 1 0 2
gene 1 1 31 1.13035 0 1 1.13035 1
gene 1 1 32 -2.46025 0 2 -2.46025 1
gene 1 1 33 2.98001 0 3 2.98001 1
gene 1 2 31 2.42808 0 4 2.42808 1
gene 1 2 32 0.497853 0 5 0.497853 1
gene 1 2 33 0.598742 0 6 0.598742 1
gene 1 3 31 -0.72364 0 7 -0.72364 1
gene 1 3 32 -1.10214 0 8 -1.10214 1
gene 1 3 33 -2.99079 0 9 -2.99079 1
gene 1 4 31 -0.201883 0 10 -0.201883 1
gene 1 4 32 0.363432 0 11 0.363432 1
gene 1 4 33 0.119984 0 12 0.119984 1
gene 1 5 31 -2.33345 0 13 -2.33345 1
gene 1 5 32 -0.157515 0 14 -0.157515 1
gene 1 5 33 -1.86718 0 15 -1.86718 1
gene 1 6 31 -1.10497 0 16 -1.10497 1
gene 1 6 32 0.614374 0 17 0.614374 1
gene 1 6 33 -1.30035 0 18 -1.30035 1
gene 1 7 31 0.273132 0 19 0.273132 1
gene 1 7 32 0.258153 0 20 0.258153 1
gene 1 7 33 4.0336 0 21 4.0336 1
gene 1 8 31 0.854034 0 22 0.854034 1
gene 1 8 32 0.215395 0 23 0.215395 1
gene 1 8 33 -0.828009 0 24 -0.828009 1
gene 1 9 31 -1.97631 0 25 -1.97631 1
gene 1 9 32 0.917436 0 26 0.917436 1
gene 1 9 33 0.390144 0 27 0.390144 1
gene 1 10 31 -0.00564923 0 28 -0.00564923 1
gene 1 10 32 1.02962 0 29 1.02962 1
gene 1 10 33 -2.68741 0 30 -2.68741 1
gene 1 11 31 -0.491137 0 31 -0.491137 1
gene 1 11 32 -0.247668 0 32 -0.247668 1
gene 1 11 33 0.881311 0 33 0.881311 1
gene 1 12 31 -0.0308517 0 34 -0.0308517 1
gene 1 12 32 0.878203 0 35 0.878203 1
gene 1 12 33 0.60643 0 36 0.60643 1
gene 1 13 31 0.499653 0 37 0.499653 1
gene 1 13 32 -0.164523 0 38 -0.164523 1
gene 1 13 33 0.275943 0 39 0.275943 1
gene 1 14 31 -1.31012 0 40 -1.31012 1
gene 1 14 32 -0.632565 0 41 -0.632565 1
gene 1 14 33 1.37924 0 42 1.37924 1
gene 1 15 31 3.33616 0 43 3.33616 1
gene 1 15 32 0.0759659 0 44 0.0759659 1
gene 1 15 33 2.51889 0 45 2.51889 1
gene 1 16 31 0.87977 0 46 0.87977 1
gene 1 16 32 -2.20557 0 47 -2.20557 1
gene 1 16 33 -0.196446 0 48 -0.196446 1
gene 1 17 31 1.4731 0 49 1.4731 1
gene 1 17 32 -3.78021 0 50 -3.78021 1
gene 1 17 33 0.093869 0 51 0.093869 1
gene 1 18 31 -0.413015 0 52 -0.413015 1
gene 1 18 32 -0.903693 0 53 -0.903693 1
gene 1 18 33 0.0904949 0 54 0.0904949 1
gene 1 19 31 0.821573 0 55 0.821573 1
gene 1 19 32 -2.61746 0 56 -2.61746 1
gene 1 19 33 -0.990854 0 57 -0.990854 1
gene 1 20 31 -0.566896 0 58 -0.566896 1
gene 1 20 32 3.99466 0 59 3.99466 1
gene 1 20 33 0.00895489 0 60 0.00895489 1
gene 1 21 31 -2.15893 0 61 -2.15893 1
gene 1 21 32 0.898906 0 62 0.898906 1
gene 1 21 33 -0.375443 0 63 -0.375443 1
gene 1 22 31 -0.848743 0 64 -0.848743 1
gene 1 22 32 0.555785 0 65 0.555785 1
gene 1 22 33 1.47807 0 66 1.47807 1
gene 1 23 31 1.07347 0 67 1.07347 1
gene 1 23 32 -0.0620808 0 68 -0.0620808 1
gene 1 23 33 -1.92452 0 69 -1.92452 1
gene 1 24 31 -0.734392 0 70 -0.734392 1
gene 1 24 32 -1.7265 0 71 -1.7265 1
gene 1 24 33 0.261341 0 72 0.261341 1
gene 1 25 31 2.82331 0 73 2.82331 1
gene 1 25 32 1.56444 0 74 1.56444 1
gene 1 25 33 0.580791 0 75 0.580791 1
gene 1 26 31 -0.69637 0 76 -0.69637 1
gene 1 26 32 0.183705 0 77 0.183705 1
gene 1 26 33 -0.406053 0 78 -0.406053 1
gene 1 27 31 0.368784 0 79 0.368784 1
gene 1 27 32 -0.231511 0 80 -0.231511 1
gene 1 27 33 -0.172702 0 81 -0.172702 1
gene 1 28 31 1.27225 0 82 1.27225 1
gene 1 28 32 -1.3886 0 83 -1.3886 1
gene 1 28 33 0.877071 0 84 0.877071 1
gene 1 29 31 1.77682 0 85 1.77682 1
gene 1 29 32 0.501067 0 86 0.501067 1
gene 1 29 33 -0.229568 0 87 -0.229568 1
gene 1 30 31 3.65607 0 88 3.65607 1
gene 1 30 32 1.79285 0 89 1.79285 1
gene 1 30 33 -0.624245 0 90 -0.624245 1
genomeend 15


