/* Organism #20 Fitness: -144713934.430000 Time: 0 */
genomestart 20
trait 1 0.073144 0.000000 0.419823 0.000000 0.400577 0.000000 0.000000 0.000000 
node 1 1 1 1
node 2 1 1 1
node 3 1 1 1
node 4 1 1 1
node 5 1 1 1
node 6 1 1 1
node 7 1 1 1
node 8 1 1 1
node 9 1 1 1
node 10 1 1 1
node 11 1 1 1
node 12 1 1 1
node 13 1 1 1
node 14 1 1 1
node 15 1 1 1
node 16 1 1 1
node 17 1 1 1
node 18 1 1 1
node 19 1 1 1
node 20 1 1 1
node 21 1 1 1
node 22 1 1 1
node 23 1 1 1
node 24 1 1 1
node 25 1 1 1
node 26 1 1 1
node 27 1 1 1
node 28 1 1 1
node 29 1 1 1
node 30 1 1 3
node 31 1 0 2
node 32 1 0 2
node 33 1 0 2
gene 1 1 31 0.473586 0 1 0.473586 1
gene 1 1 32 3.49629 0 2 3.49629 1
gene 1 1 33 0.791291 0 3 0.791291 1
gene 1 2 31 -0.275697 0 4 -0.275697 1
gene 1 2 32 0.16419 0 5 0.16419 1
gene 1 2 33 1.38208 0 6 1.38208 1
gene 1 3 31 0.313614 0 7 0.313614 1
gene 1 3 32 0.174965 0 8 0.174965 1
gene 1 3 33 1.06277 0 9 1.06277 1
gene 1 4 31 -0.240617 0 10 -0.240617 1
gene 1 4 32 -1.19931 0 11 -1.19931 1
gene 1 4 33 -0.114949 0 12 -0.114949 1
gene 1 5 31 -3.81796 0 13 -3.81796 1
gene 1 5 32 1.73708 0 14 1.73708 1
gene 1 5 33 0.324453 0 15 0.324453 1
gene 1 6 31 0.829388 0 16 0.829388 1
gene 1 6 32 -1.39576 0 17 -1.39576 1
gene 1 6 33 -0.537245 0 18 -0.537245 1
gene 1 7 31 -0.109761 0 19 -0.109761 1
gene 1 7 32 0.25136 0 20 0.25136 1
gene 1 7 33 -0.690981 0 21 -0.690981 1
gene 1 8 31 1.2352 0 22 1.2352 1
gene 1 8 32 -0.729685 0 23 -0.729685 1
gene 1 8 33 -2.46753 0 24 -2.46753 1
gene 1 9 31 -0.682367 0 25 -0.682367 1
gene 1 9 32 2.58618 0 26 2.58618 1
gene 1 9 33 0.880907 0 27 0.880907 1
gene 1 10 31 0.332266 0 28 0.332266 1
gene 1 10 32 4.58095 0 29 4.58095 1
gene 1 10 33 3.14161 0 30 3.14161 1
gene 1 11 31 -0.812544 0 31 -0.812544 1
gene 1 11 32 0.348399 0 32 0.348399 1
gene 1 11 33 0.586354 0 33 0.586354 1
gene 1 12 31 -0.55361 0 34 -0.55361 1
gene 1 12 32 0.819616 0 35 0.819616 1
gene 1 12 33 -2.94144 0 36 -2.94144 1
gene 1 13 31 0.0839261 0 37 0.0839261 1
gene 1 13 32 1.38213 0 38 1.38213 1
gene 1 13 33 3.24785 0 39 3.24785 1
gene 1 14 31 0.219644 0 40 0.219644 1
gene 1 14 32 1.32994 0 41 1.32994 1
gene 1 14 33 0.942154 0 42 0.942154 1
gene 1 15 31 -4.21905 0 43 -4.21905 1
gene 1 15 32 0.412108 0 44 0.412108 1
gene 1 15 33 -1.65484 0 45 -1.65484 1
gene 1 16 31 -0.616586 0 46 -0.616586 1
gene 1 16 32 3.53272 0 47 3.53272 1
gene 1 16 33 1.75372 0 48 1.75372 1
gene 1 17 31 0.208571 0 49 0.208571 1
gene 1 17 32 -0.548332 0 50 -0.548332 1
gene 1 17 33 1.40646 0 51 1.40646 1
gene 1 18 31 -0.351422 0 52 -0.351422 1
gene 1 18 32 -1.3729 0 53 -1.3729 1
gene 1 18 33 0.690292 0 54 0.690292 1
gene 1 19 31 -5 0 55 -5 1
gene 1 19 32 4.02448 0 56 4.02448 1
gene 1 19 33 -0.219634 0 57 -0.219634 1
gene 1 20 31 -0.575012 0 58 -0.575012 1
gene 1 20 32 -0.221137 0 59 -0.221137 1
gene 1 20 33 0.911016 0 60 0.911016 1
gene 1 21 31 -0.733107 0 61 -0.733107 1
gene 1 21 32 -0.284811 0 62 -0.284811 1
gene 1 21 33 -3.62971 0 63 -3.62971 1
gene 1 22 31 0.759239 0 64 0.759239 1
gene 1 22 32 -1.12047 0 65 -1.12047 1
gene 1 22 33 2.80321 0 66 2.80321 1
gene 1 23 31 -0.00482283 0 67 -0.00482283 1
gene 1 23 32 -0.800808 0 68 -0.800808 1
gene 1 23 33 0.123665 0 69 0.123665 1
gene 1 24 31 -0.888209 0 70 -0.888209 1
gene 1 24 32 0.0824822 0 71 0.0824822 1
gene 1 24 33 -0.415814 0 72 -0.415814 1
gene 1 25 31 0.198574 0 73 0.198574 1
gene 1 25 32 0.992164 0 74 0.992164 1
gene 1 25 33 -1.94498 0 75 -1.94498 1
gene 1 26 31 -1.2631 0 76 -1.2631 1
gene 1 26 32 -2.58826 0 77 -2.58826 1
gene 1 26 33 -2.71737 0 78 -2.71737 1
gene 1 27 31 0.261401 0 79 0.261401 1
gene 1 27 32 0.636169 0 80 0.636169 1
gene 1 27 33 2.1219 0 81 2.1219 1
gene 1 28 31 -0.736529 0 82 -0.736529 1
gene 1 28 32 -2.09841 0 83 -2.09841 1
gene 1 28 33 -1.35828 0 84 -1.35828 1
gene 1 29 31 -1.58497 0 85 -1.58497 1
gene 1 29 32 -0.753656 0 86 -0.753656 1
gene 1 29 33 0.106706 0 87 0.106706 1
gene 1 30 31 0.434312 0 88 0.434312 1
gene 1 30 32 -3.84998 0 89 -3.84998 1
gene 1 30 33 1.76987 0 90 1.76987 1
genomeend 20


