/* Organism #9 Fitness: -142250730.890000 Time: 0 */
genomestart 9
trait 1 0.083383 0.360875 1.000000 0.000000 0.931312 1.000000 0.000000 0.942677 
node 1 1 1 1
node 2 1 1 1
node 3 1 1 1
node 4 1 1 1
node 5 1 1 1
node 6 1 1 1
node 7 1 1 1
node 8 1 1 1
node 9 1 1 1
node 10 1 1 1
node 11 1 1 1
node 12 1 1 1
node 13 1 1 1
node 14 1 1 1
node 15 1 1 1
node 16 1 1 1
node 17 1 1 1
node 18 1 1 1
node 19 1 1 1
node 20 1 1 1
node 21 1 1 1
node 22 1 1 1
node 23 1 1 1
node 24 1 1 1
node 25 1 1 1
node 26 1 1 1
node 27 1 1 1
node 28 1 1 1
node 29 1 1 1
node 30 1 1 3
node 31 1 0 2
node 32 1 0 2
node 33 1 0 2
gene 1 1 31 -0.285323 0 1 -0.285323 1
gene 1 1 32 -0.605318 0 2 -0.605318 1
gene 1 1 33 -0.0112025 0 3 -0.0112025 1
gene 1 2 31 -0.900299 0 4 -0.900299 1
gene 1 2 32 -3.19459 0 5 -3.19459 1
gene 1 2 33 -1.06813 0 6 -1.06813 1
gene 1 3 31 -0.851578 0 7 -0.851578 1
gene 1 3 32 -0.822956 0 8 -0.822956 1
gene 1 3 33 -0.21738 0 9 -0.21738 1
gene 1 4 31 -0.370893 0 10 -0.370893 1
gene 1 4 32 -0.10206 0 11 -0.10206 1
gene 1 4 33 -0.96452 0 12 -0.96452 1
gene 1 5 31 0.535593 0 13 0.535593 1
gene 1 5 32 -0.516247 0 14 -0.516247 1
gene 1 5 33 -1.67209 0 15 -1.67209 1
gene 1 6 31 0.827901 0 16 0.827901 1
gene 1 6 32 -0.0747035 0 17 -0.0747035 1
gene 1 6 33 -0.0838203 0 18 -0.0838203 1
gene 1 7 31 0.491797 0 19 0.491797 1
gene 1 7 32 -0.237359 0 20 -0.237359 1
gene 1 7 33 0.195759 0 21 0.195759 1
gene 1 8 31 -1.98393 0 22 -1.98393 1
gene 1 8 32 2.54565 0 23 2.54565 1
gene 1 8 33 0.713644 0 24 0.713644 1
gene 1 9 31 3.47916 0 25 3.47916 1
gene 1 9 32 0.104595 0 26 0.104595 1
gene 1 9 33 -0.580443 0 27 -0.580443 1
gene 1 10 31 -0.205531 0 28 -0.205531 1
gene 1 10 32 -0.362521 0 29 -0.362521 1
gene 1 10 33 -0.815759 0 30 -0.815759 1
gene 1 11 31 -0.467155 0 31 -0.467155 1
gene 1 11 32 0.257254 0 32 0.257254 1
gene 1 11 33 -0.303688 0 33 -0.303688 1
gene 1 12 31 0.0463749 0 34 0.0463749 1
gene 1 12 32 5 0 35 5 1
gene 1 12 33 1.51253 0 36 1.51253 1
gene 1 13 31 4.46515 0 37 4.46515 1
gene 1 13 32 0.0958457 0 38 0.0958457 1
gene 1 13 33 1.54102 0 39 1.54102 1
gene 1 14 31 -0.614765 0 40 -0.614765 1
gene 1 14 32 1.91816 0 41 1.91816 1
gene 1 14 33 -0.157321 0 42 -0.157321 1
gene 1 15 31 -0.18397 0 43 -0.18397 1
gene 1 15 32 0.348629 0 44 0.348629 1
gene 1 15 33 0.726663 0 45 0.726663 1
gene 1 16 31 0.454745 0 46 0.454745 1
gene 1 16 32 -1.37136 0 47 -1.37136 1
gene 1 16 33 -0.422224 0 48 -0.422224 1
gene 1 17 31 -3.60973 0 49 -3.60973 1
gene 1 17 32 -0.194677 0 50 -0.194677 1
gene 1 17 33 0.173089 0 51 0.173089 1
gene 1 18 31 -0.531622 0 52 -0.531622 1
gene 1 18 32 -2.6404 0 53 -2.6404 1
gene 1 18 33 1.03025 0 54 1.03025 1
gene 1 19 31 -2.58328 0 55 -2.58328 1
gene 1 19 32 0.367822 0 56 0.367822 1
gene 1 19 33 0.488848 0 57 0.488848 1
gene 1 20 31 0.657667 0 58 0.657667 1
gene 1 20 32 -1.89414 0 59 -1.89414 1
gene 1 20 33 -0.484894 0 60 -0.484894 1
gene 1 21 31 0.40835 0 61 0.40835 1
gene 1 21 32 -0.620252 0 62 -0.620252 1
gene 1 21 33 -0.648803 0 63 -0.648803 1
gene 1 22 31 0.622096 0 64 0.622096 1
gene 1 22 32 0.817568 0 65 0.817568 1
gene 1 22 33 0.150841 0 66 0.150841 1
gene 1 23 31 0.518805 0 67 0.518805 1
gene 1 23 32 0.762695 0 68 0.762695 1
gene 1 23 33 -0.197013 0 69 -0.197013 1
gene 1 24 31 -0.794237 0 70 -0.794237 1
gene 1 24 32 -2.63838 0 71 -2.63838 1
gene 1 24 33 -0.523276 0 72 -0.523276 1
gene 1 25 31 0.276781 0 73 0.276781 1
gene 1 25 32 0.950177 0 74 0.950177 1
gene 1 25 33 1.28686 0 75 1.28686 1
gene 1 26 31 -3.49679 0 76 -3.49679 1
gene 1 26 32 0.0712378 0 77 0.0712378 1
gene 1 26 33 -1.10618 0 78 -1.10618 1
gene 1 27 31 -0.927725 0 79 -0.927725 1
gene 1 27 32 0.364822 0 80 0.364822 1
gene 1 27 33 -0.327482 0 81 -0.327482 1
gene 1 28 31 -0.995783 0 82 -0.995783 1
gene 1 28 32 0.229572 0 83 0.229572 1
gene 1 28 33 0.991233 0 84 0.991233 1
gene 1 29 31 -0.462009 0 85 -0.462009 1
gene 1 29 32 -2.35844 0 86 -2.35844 1
gene 1 29 33 -0.363392 0 87 -0.363392 1
gene 1 30 31 0.728061 0 88 0.728061 1
gene 1 30 32 -0.115131 0 89 -0.115131 1
gene 1 30 33 -0.0222462 0 90 -0.0222462 1
genomeend 9


