/* Organism #23 Fitness: -146550669.718000 Time: 0 */
genomestart 23
trait 1 1.000000 0.000000 0.061993 0.000000 0.535367 0.000000 0.395157 0.342799 
node 1 1 1 1
node 2 1 1 1
node 3 1 1 1
node 4 1 1 1
node 5 1 1 1
node 6 1 1 1
node 7 1 1 1
node 8 1 1 1
node 9 1 1 1
node 10 1 1 1
node 11 1 1 1
node 12 1 1 1
node 13 1 1 1
node 14 1 1 1
node 15 1 1 1
node 16 1 1 1
node 17 1 1 1
node 18 1 1 1
node 19 1 1 1
node 20 1 1 1
node 21 1 1 1
node 22 1 1 1
node 23 1 1 1
node 24 1 1 1
node 25 1 1 1
node 26 1 1 1
node 27 1 1 1
node 28 1 1 1
node 29 1 1 1
node 30 1 1 3
node 31 1 0 2
node 32 1 0 2
node 33 1 0 2
gene 1 1 31 -0.979281 0 1 -0.979281 1
gene 1 1 32 1.92689 0 2 1.92689 1
gene 1 1 33 1.19454 0 3 1.19454 1
gene 1 2 31 -0.239433 0 4 -0.239433 1
gene 1 2 32 0.797484 0 5 0.797484 1
gene 1 2 33 -3.04867 0 6 -3.04867 1
gene 1 3 31 1.3848 0 7 1.3848 1
gene 1 3 32 -0.662181 0 8 -0.662181 1
gene 1 3 33 1.60412 0 9 1.60412 1
gene 1 4 31 2.71712 0 10 2.71712 1
gene 1 4 32 -1.58123 0 11 -1.58123 1
gene 1 4 33 5 0 12 5 1
gene 1 5 31 0.356937 0 13 0.356937 1
gene 1 5 32 -1.19438 0 14 -1.19438 1
gene 1 5 33 0.322046 0 15 0.322046 1
gene 1 6 31 -0.196383 0 16 -0.196383 1
gene 1 6 32 -1.52491 0 17 -1.52491 1
gene 1 6 33 -0.614807 0 18 -0.614807 1
gene 1 7 31 0.225514 0 19 0.225514 1
gene 1 7 32 -2.02092 0 20 -2.02092 1
gene 1 7 33 1.85604 0 21 1.85604 1
gene 1 8 31 2.03494 0 22 2.03494 1
gene 1 8 32 -1.58273 0 23 -1.58273 1
gene 1 8 33 3.83575 0 24 3.83575 1
gene 1 9 31 0.133592 0 25 0.133592 1
gene 1 9 32 1.02393 0 26 1.02393 1
gene 1 9 33 -0.648968 0 27 -0.648968 1
gene 1 10 31 -4.19613 0 28 -4.19613 1
gene 1 10 32 -0.643813 0 29 -0.643813 1
gene 1 10 33 -1.32862 0 30 -1.32862 1
gene 1 11 31 0.391713 0 31 0.391713 1
gene 1 11 32 -1.57046 0 32 -1.57046 1
gene 1 11 33 -1.55819 0 33 -1.55819 1
gene 1 12 31 -0.346493 0 34 -0.346493 1
gene 1 12 32 -0.599383 0 35 -0.599383 1
gene 1 12 33 1.12036 0 36 1.12036 1
gene 1 13 31 -0.612802 0 37 -0.612802 1
gene 1 13 32 -2.2554 0 38 -2.2554 1
gene 1 13 33 1.81883 0 39 1.81883 1
gene 1 14 31 -0.0162364 0 40 -0.0162364 1
gene 1 14 32 0.434733 0 41 0.434733 1
gene 1 14 33 -0.302681 0 42 -0.302681 1
gene 1 15 31 -0.143769 0 43 -0.143769 1
gene 1 15 32 1.58572 0 44 1.58572 1
gene 1 15 33 0.313813 0 45 0.313813 1
gene 1 16 31 0.436723 0 46 0.436723 1
gene 1 16 32 1.40139 0 47 1.40139 1
gene 1 16 33 -0.837112 0 48 -0.837112 1
gene 1 17 31 0.660069 0 49 0.660069 1
gene 1 17 32 -1.7219 0 50 -1.7219 1
gene 1 17 33 0.40048 0 51 0.40048 1
gene 1 18 31 -1.29662 0 52 -1.29662 1
gene 1 18 32 -2.39199 0 53 -2.39199 1
gene 1 18 33 -0.961107 0 54 -0.961107 1
gene 1 19 31 0.170953 0 55 0.170953 1
gene 1 19 32 1.34661 0 56 1.34661 1
gene 1 19 33 1.47027 0 57 1.47027 1
gene 1 20 31 -0.760786 0 58 -0.760786 1
gene 1 20 32 1.59006 0 59 1.59006 1
gene 1 20 33 -0.699592 0 60 -0.699592 1
gene 1 21 31 -0.0688015 0 61 -0.0688015 1
gene 1 21 32 0.0719329 0 62 0.0719329 1
gene 1 21 33 -2.63855 0 63 -2.63855 1
gene 1 22 31 -2.39267 0 64 -2.39267 1
gene 1 22 32 -1.20351 0 65 -1.20351 1
gene 1 22 33 1.51403 0 66 1.51403 1
gene 1 23 31 0.845831 0 67 0.845831 1
gene 1 23 32 1.34653 0 68 1.34653 1
gene 1 23 33 -0.565524 0 69 -0.565524 1
gene 1 24 31 -0.472908 0 70 -0.472908 1
gene 1 24 32 -0.215158 0 71 -0.215158 1
gene 1 24 33 0.387668 0 72 0.387668 1
gene 1 25 31 0.96054 0 73 0.96054 1
gene 1 25 32 0.275799 0 74 0.275799 1
gene 1 25 33 0.108437 0 75 0.108437 1
gene 1 26 31 -1.85593 0 76 -1.85593 1
gene 1 26 32 -0.346632 0 77 -0.346632 1
gene 1 26 33 -1.28146 0 78 -1.28146 1
gene 1 27 31 0.782876 0 79 0.782876 1
gene 1 27 32 -0.732129 0 80 -0.732129 1
gene 1 27 33 1.22006 0 81 1.22006 1
gene 1 28 31 0.34196 0 82 0.34196 1
gene 1 28 32 1.29205 0 83 1.29205 1
gene 1 28 33 -0.701956 0 84 -0.701956 1
gene 1 29 31 -1.90493 0 85 -1.90493 1
gene 1 29 32 0.796992 0 86 0.796992 1
gene 1 29 33 0.28137 0 87 0.28137 1
gene 1 30 31 -0.929824 0 88 -0.929824 1
gene 1 30 32 -2.28801 0 89 -2.28801 1
gene 1 30 33 -0.467796 0 90 -0.467796 1
genomeend 23


