/* Organism #22 Fitness: -143579497.130000 Time: 0 */
genomestart 22
trait 1 0.100000 0.000000 0.000000 0.119801 0.000000 0.000000 0.000000 0.000000 
node 1 1 1 1
node 2 1 1 1
node 3 1 1 1
node 4 1 1 1
node 5 1 1 1
node 6 1 1 1
node 7 1 1 1
node 8 1 1 1
node 9 1 1 1
node 10 1 1 1
node 11 1 1 1
node 12 1 1 1
node 13 1 1 1
node 14 1 1 1
node 15 1 1 1
node 16 1 1 1
node 17 1 1 1
node 18 1 1 1
node 19 1 1 1
node 20 1 1 1
node 21 1 1 1
node 22 1 1 1
node 23 1 1 1
node 24 1 1 1
node 25 1 1 1
node 26 1 1 1
node 27 1 1 1
node 28 1 1 1
node 29 1 1 1
node 30 1 1 3
node 31 1 0 2
node 32 1 0 2
node 33 1 0 2
gene 1 1 31 -1.59631 0 1 -1.59631 1
gene 1 1 32 1.13508 0 2 1.13508 1
gene 1 1 33 -2.29875 0 3 -2.29875 1
gene 1 2 31 1.1423 0 4 1.1423 1
gene 1 2 32 -1.01283 0 5 -1.01283 1
gene 1 2 33 1.31971 0 6 1.31971 1
gene 1 3 31 1.40451 0 7 1.40451 1
gene 1 3 32 1.16302 0 8 1.16302 1
gene 1 3 33 -1.6478 0 9 -1.6478 1
gene 1 4 31 0.650738 0 10 0.650738 1
gene 1 4 32 -0.375762 0 11 -0.375762 1
gene 1 4 33 1.61459 0 12 1.61459 1
gene 1 5 31 0.35632 0 13 0.35632 1
gene 1 5 32 0.720894 0 14 0.720894 1
gene 1 5 33 -2.87098 0 15 -2.87098 1
gene 1 6 31 1.79162 0 16 1.79162 1
gene 1 6 32 0.252259 0 17 0.252259 1
gene 1 6 33 -1.33581 0 18 -1.33581 1
gene 1 7 31 -0.832039 0 19 -0.832039 1
gene 1 7 32 4.80457 0 20 4.80457 1
gene 1 7 33 1.88638 0 21 1.88638 1
gene 1 8 31 -0.204651 0 22 -0.204651 1
gene 1 8 32 0.521135 0 23 0.521135 1
gene 1 8 33 1.15858 0 24 1.15858 1
gene 1 9 31 -3.77768 0 25 -3.77768 1
gene 1 9 32 -0.709174 0 26 -0.709174 1
gene 1 9 33 -0.407609 0 27 -0.407609 1
gene 1 10 31 1.08817 0 28 1.08817 1
gene 1 10 32 -0.0768074 0 29 -0.0768074 1
gene 1 10 33 4.10601 0 30 4.10601 1
gene 1 11 31 -4.72507 0 31 -4.72507 1
gene 1 11 32 0.179266 0 32 0.179266 1
gene 1 11 33 -0.436437 0 33 -0.436437 1
gene 1 12 31 0.171457 0 34 0.171457 1
gene 1 12 32 0.596622 0 35 0.596622 1
gene 1 12 33 0.932111 0 36 0.932111 1
gene 1 13 31 0.159906 0 37 0.159906 1
gene 1 13 32 1.81959 0 38 1.81959 1
gene 1 13 33 4.40764 0 39 4.40764 1
gene 1 14 31 0.0898093 0 40 0.0898093 1
gene 1 14 32 1.21724 0 41 1.21724 1
gene 1 14 33 -0.252923 0 42 -0.252923 1
gene 1 15 31 -0.629149 0 43 -0.629149 1
gene 1 15 32 5 0 44 5 1
gene 1 15 33 -0.563895 0 45 -0.563895 1
gene 1 16 31 0.720523 0 46 0.720523 1
gene 1 16 32 -5 0 47 -5 1
gene 1 16 33 -0.992717 0 48 -0.992717 1
gene 1 17 31 0.280769 0 49 0.280769 1
gene 1 17 32 0.0334419 0 50 0.0334419 1
gene 1 17 33 -2.5754 0 51 -2.5754 1
gene 1 18 31 0.285527 0 52 0.285527 1
gene 1 18 32 -0.270192 0 53 -0.270192 1
gene 1 18 33 -0.423103 0 54 -0.423103 1
gene 1 19 31 0.227253 0 55 0.227253 1
gene 1 19 32 -1.80162 0 56 -1.80162 1
gene 1 19 33 -1.03848 0 57 -1.03848 1
gene 1 20 31 -1.27991 0 58 -1.27991 1
gene 1 20 32 -0.253747 0 59 -0.253747 1
gene 1 20 33 1.74193 0 60 1.74193 1
gene 1 21 31 -3.68939 0 61 -3.68939 1
gene 1 21 32 1.31631 0 62 1.31631 1
gene 1 21 33 1.89931 0 63 1.89931 1
gene 1 22 31 1.88058 0 64 1.88058 1
gene 1 22 32 -0.493687 0 65 -0.493687 1
gene 1 22 33 -1.33488 0 66 -1.33488 1
gene 1 23 31 0.276239 0 67 0.276239 1
gene 1 23 32 -1.48853 0 68 -1.48853 1
gene 1 23 33 -0.975364 0 69 -0.975364 1
gene 1 24 31 -0.986651 0 70 -0.986651 1
gene 1 24 32 -0.890562 0 71 -0.890562 1
gene 1 24 33 1.28042 0 72 1.28042 1
gene 1 25 31 -0.763963 0 73 -0.763963 1
gene 1 25 32 -0.869008 0 74 -0.869008 1
gene 1 25 33 1.14033 0 75 1.14033 1
gene 1 26 31 0.703488 0 76 0.703488 1
gene 1 26 32 0.63917 0 77 0.63917 1
gene 1 26 33 0.952997 0 78 0.952997 1
gene 1 27 31 0.436081 0 79 0.436081 1
gene 1 27 32 -0.700946 0 80 -0.700946 1
gene 1 27 33 -0.183324 0 81 -0.183324 1
gene 1 28 31 1.23549 0 82 1.23549 1
gene 1 28 32 0.787342 0 83 0.787342 1
gene 1 28 33 1.54589 0 84 1.54589 1
gene 1 29 31 0.777071 0 85 0.777071 1
gene 1 29 32 -0.0778405 0 86 -0.0778405 1
gene 1 29 33 -0.498315 0 87 -0.498315 1
gene 1 30 31 -1.89944 0 88 -1.89944 1
gene 1 30 32 0.104102 0 89 0.104102 1
gene 1 30 33 -2.26066 0 90 -2.26066 1
genomeend 22


