/* Organism #5 Fitness: -146113269.710000 Time: 0 */
genomestart 5
trait 1 0.000000 0.014155 1.000000 1.000000 0.670791 0.703830 0.000000 0.000000 
node 1 1 1 1
node 2 1 1 1
node 3 1 1 1
node 4 1 1 1
node 5 1 1 1
node 6 1 1 1
node 7 1 1 1
node 8 1 1 1
node 9 1 1 1
node 10 1 1 1
node 11 1 1 1
node 12 1 1 1
node 13 1 1 1
node 14 1 1 1
node 15 1 1 1
node 16 1 1 1
node 17 1 1 1
node 18 1 1 1
node 19 1 1 1
node 20 1 1 1
node 21 1 1 1
node 22 1 1 1
node 23 1 1 1
node 24 1 1 1
node 25 1 1 1
node 26 1 1 1
node 27 1 1 1
node 28 1 1 1
node 29 1 1 1
node 30 1 1 3
node 31 1 0 2
node 32 1 0 2
node 33 1 0 2
gene 1 1 31 0.856651 0 1 0.856651 1
gene 1 1 32 0.32084 0 2 0.32084 1
gene 1 1 33 2.09858 0 3 2.09858 1
gene 1 2 31 -0.122117 0 4 -0.122117 1
gene 1 2 32 -3.90702 0 5 -3.90702 1
gene 1 2 33 0.756102 0 6 0.756102 1
gene 1 3 31 0.358779 0 7 0.358779 1
gene 1 3 32 0.258823 0 8 0.258823 1
gene 1 3 33 -0.26447 0 9 -0.26447 1
gene 1 4 31 -0.00525281 0 10 -0.00525281 1
gene 1 4 32 -0.130159 0 11 -0.130159 1
gene 1 4 33 1.27241 0 12 1.27241 1
gene 1 5 31 1.14755 0 13 1.14755 1
gene 1 5 32 -1.00323 0 14 -1.00323 1
gene 1 5 33 2.00509 0 15 2.00509 1
gene 1 6 31 0.603936 0 16 0.603936 1
gene 1 6 32 -0.61886 0 17 -0.61886 1
gene 1 6 33 0.42079 0 18 0.42079 1
gene 1 7 31 2.71685 0 19 2.71685 1
gene 1 7 32 0.777299 0 20 0.777299 1
gene 1 7 33 -0.527618 0 21 -0.527618 1
gene 1 8 31 0.581301 0 22 0.581301 1
gene 1 8 32 0.381999 0 23 0.381999 1
gene 1 8 33 0.318266 0 24 0.318266 1
gene 1 9 31 1.39439 0 25 1.39439 1
gene 1 9 32 -0.158743 0 26 -0.158743 1
gene 1 9 33 -0.206296 0 27 -0.206296 1
gene 1 10 31 2.336 0 28 2.336 1
gene 1 10 32 0.374256 0 29 0.374256 1
gene 1 10 33 -0.71642 0 30 -0.71642 1
gene 1 11 31 -1.28262 0 31 -1.28262 1
gene 1 11 32 -2.59783 0 32 -2.59783 1
gene 1 11 33 0.316739 0 33 0.316739 1
gene 1 12 31 -0.601397 0 34 -0.601397 1
gene 1 12 32 -1.15415 0 35 -1.15415 1
gene 1 12 33 -0.238572 0 36 -0.238572 1
gene 1 13 31 0.312185 0 37 0.312185 1
gene 1 13 32 -2.61269 0 38 -2.61269 1
gene 1 13 33 -0.0480934 0 39 -0.0480934 1
gene 1 14 31 0.564887 0 40 0.564887 1
gene 1 14 32 3.18186 0 41 3.18186 1
gene 1 14 33 0.136082 0 42 0.136082 1
gene 1 15 31 0.323218 0 43 0.323218 1
gene 1 15 32 0.337374 0 44 0.337374 1
gene 1 15 33 -0.665747 0 45 -0.665747 1
gene 1 16 31 2.89202 0 46 2.89202 1
gene 1 16 32 -0.136125 0 47 -0.136125 1
gene 1 16 33 -0.0935157 0 48 -0.0935157 1
gene 1 17 31 1.89904 0 49 1.89904 1
gene 1 17 32 -0.728825 0 50 -0.728825 1
gene 1 17 33 0.210918 0 51 0.210918 1
gene 1 18 31 -3.41098 0 52 -3.41098 1
gene 1 18 32 3.58559 0 53 3.58559 1
gene 1 18 33 -0.259468 0 54 -0.259468 1
gene 1 19 31 1.28656 0 55 1.28656 1
gene 1 19 32 1.5132 0 56 1.5132 1
gene 1 19 33 -1.75305 0 57 -1.75305 1
gene 1 20 31 -0.247316 0 58 -0.247316 1
gene 1 20 32 -1.50752 0 59 -1.50752 1
gene 1 20 33 0.30974 0 60 0.30974 1
gene 1 21 31 0.428492 0 61 0.428492 1
gene 1 21 32 1.17087 0 62 1.17087 1
gene 1 21 33 -0.179169 0 63 -0.179169 1
gene 1 22 31 0.406239 0 64 0.406239 1
gene 1 22 32 0.356998 0 65 0.356998 1
gene 1 22 33 -0.602211 0 66 -0.602211 1
gene 1 23 31 -2.00377 0 67 -2.00377 1
gene 1 23 32 -1.24332 0 68 -1.24332 1
gene 1 23 33 0.385495 0 69 0.385495 1
gene 1 24 31 -0.228907 0 70 -0.228907 1
gene 1 24 32 1.44731 0 71 1.44731 1
gene 1 24 33 -2.65035 0 72 -2.65035 1
gene 1 25 31 -1.06921 0 73 -1.06921 1
gene 1 25 32 -2.37224 0 74 -2.37224 1
gene 1 25 33 2.41263 0 75 2.41263 1
gene 1 26 31 0.673132 0 76 0.673132 1
gene 1 26 32 0.912072 0 77 0.912072 1
gene 1 26 33 0.977659 0 78 0.977659 1
gene 1 27 31 0.524988 0 79 0.524988 1
gene 1 27 32 -0.584025 0 80 -0.584025 1
gene 1 27 33 1.43425 0 81 1.43425 1
gene 1 28 31 -0.0315625 0 82 -0.0315625 1
gene 1 28 32 -0.93443 0 83 -0.93443 1
gene 1 28 33 -0.0833762 0 84 -0.0833762 1
gene 1 29 31 -0.652052 0 85 -0.652052 1
gene 1 29 32 0.750031 0 86 0.750031 1
gene 1 29 33 -1.44284 0 87 -1.44284 1
gene 1 30 31 -0.765543 0 88 -0.765543 1
gene 1 30 32 -1.21207 0 89 -1.21207 1
gene 1 30 33 0.566772 0 90 0.566772 1
genomeend 5


