/* Organism #19 Fitness: -145847206.570000 Time: 0 */
genomestart 19
trait 1 0.000000 1.000000 0.000000 1.000000 0.062758 0.884896 0.286166 0.000000 
node 1 1 1 1
node 2 1 1 1
node 3 1 1 1
node 4 1 1 1
node 5 1 1 1
node 6 1 1 1
node 7 1 1 1
node 8 1 1 1
node 9 1 1 1
node 10 1 1 1
node 11 1 1 1
node 12 1 1 1
node 13 1 1 1
node 14 1 1 1
node 15 1 1 1
node 16 1 1 1
node 17 1 1 1
node 18 1 1 1
node 19 1 1 1
node 20 1 1 1
node 21 1 1 1
node 22 1 1 1
node 23 1 1 1
node 24 1 1 1
node 25 1 1 1
node 26 1 1 1
node 27 1 1 1
node 28 1 1 1
node 29 1 1 1
node 30 1 1 3
node 31 1 0 2
node 32 1 0 2
node 33 1 0 2
gene 1 1 31 -1.47484 0 1 -1.47484 1
gene 1 1 32 0.289526 0 2 0.289526 1
gene 1 1 33 -0.916318 0 3 -0.916318 1
gene 1 2 31 -0.842581 0 4 -0.842581 1
gene 1 2 32 0.0643108 0 5 0.0643108 1
gene 1 2 33 -0.253998 0 6 -0.253998 1
gene 1 3 31 -1.86574 0 7 -1.86574 1
gene 1 3 32 -0.609062 0 8 -0.609062 1
gene 1 3 33 -0.865255 0 9 -0.865255 1
gene 1 4 31 -1.38637 0 10 -1.38637 1
gene 1 4 32 -0.435853 0 11 -0.435853 1
gene 1 4 33 -0.622583 0 12 -0.622583 1
gene 1 5 31 2.59062 0 13 2.59062 1
gene 1 5 32 0.713418 0 14 0.713418 1
gene 1 5 33 2.65944 0 15 2.65944 1
gene 1 6 31 0.601536 0 16 0.601536 1
gene 1 6 32 -0.471289 0 17 -0.471289 1
gene 1 6 33 -1.57045 0 18 -1.57045 1
gene 1 7 31 -2.56164 0 19 -2.56164 1
gene 1 7 32 1.07951 0 20 1.07951 1
gene 1 7 33 -1.34462 0 21 -1.34462 1
gene 1 8 31 -0.406176 0 22 -0.406176 1
gene 1 8 32 0.0578513 0 23 0.0578513 1
gene 1 8 33 0.0860103 0 24 0.0860103 1
gene 1 9 31 -3.43354 0 25 -3.43354 1
gene 1 9 32 0.840731 0 26 0.840731 1
gene 1 9 33 -1.24639 0 27 -1.24639 1
gene 1 10 31 2.73549 0 28 2.73549 1
gene 1 10 32 0.238432 0 29 0.238432 1
gene 1 10 33 0.466604 0 30 0.466604 1
gene 1 11 31 -0.842444 0 31 -0.842444 1
gene 1 11 32 3.42223 0 32 3.42223 1
gene 1 11 33 -3.52582 0 33 -3.52582 1
gene 1 12 31 0.0562944 0 34 0.0562944 1
gene 1 12 32 -4.25104 0 35 -4.25104 1
gene 1 12 33 -1.50915 0 36 -1.50915 1
gene 1 13 31 -1.98202 0 37 -1.98202 1
gene 1 13 32 1.70196 0 38 1.70196 1
gene 1 13 33 -0.754292 0 39 -0.754292 1
gene 1 14 31 -1.10902 0 40 -1.10902 1
gene 1 14 32 -0.320888 0 41 -0.320888 1
gene 1 14 33 0.930153 0 42 0.930153 1
gene 1 15 31 -0.546701 0 43 -0.546701 1
gene 1 15 32 -2.32181 0 44 -2.32181 1
gene 1 15 33 0.337391 0 45 0.337391 1
gene 1 16 31 -0.105687 0 46 -0.105687 1
gene 1 16 32 0.130761 0 47 0.130761 1
gene 1 16 33 1.29134 0 48 1.29134 1
gene 1 17 31 0.624078 0 49 0.624078 1
gene 1 17 32 -0.636355 0 50 -0.636355 1
gene 1 17 33 0.179431 0 51 0.179431 1
gene 1 18 31 1.54145 0 52 1.54145 1
gene 1 18 32 -0.630461 0 53 -0.630461 1
gene 1 18 33 -0.152101 0 54 -0.152101 1
gene 1 19 31 1.04105 0 55 1.04105 1
gene 1 19 32 0.621859 0 56 0.621859 1
gene 1 19 33 3.16436 0 57 3.16436 1
gene 1 20 31 0.352654 0 58 0.352654 1
gene 1 20 32 0.724171 0 59 0.724171 1
gene 1 20 33 -0.665511 0 60 -0.665511 1
gene 1 21 31 -2.60712 0 61 -2.60712 1
gene 1 21 32 -0.519725 0 62 -0.519725 1
gene 1 21 33 -2.15846 0 63 -2.15846 1
gene 1 22 31 -0.707429 0 64 -0.707429 1
gene 1 22 32 -1.28728 0 65 -1.28728 1
gene 1 22 33 -2.41879 0 66 -2.41879 1
gene 1 23 31 0.590156 0 67 0.590156 1
gene 1 23 32 -2.4056 0 68 -2.4056 1
gene 1 23 33 -3.01967 0 69 -3.01967 1
gene 1 24 31 -3.54919 0 70 -3.54919 1
gene 1 24 32 4.55812 0 71 4.55812 1
gene 1 24 33 0.915656 0 72 0.915656 1
gene 1 25 31 0.64177 0 73 0.64177 1
gene 1 25 32 1.47546 0 74 1.47546 1
gene 1 25 33 0.266811 0 75 0.266811 1
gene 1 26 31 1.59932 0 76 1.59932 1
gene 1 26 32 -0.474478 0 77 -0.474478 1
gene 1 26 33 -0.713815 0 78 -0.713815 1
gene 1 27 31 -0.456272 0 79 -0.456272 1
gene 1 27 32 -0.631052 0 80 -0.631052 1
gene 1 27 33 -0.436857 0 81 -0.436857 1
gene 1 28 31 -1.40435 0 82 -1.40435 1
gene 1 28 32 0.510315 0 83 0.510315 1
gene 1 28 33 -0.461409 0 84 -0.461409 1
gene 1 29 31 0.00233216 0 85 0.00233216 1
gene 1 29 32 4.31543 0 86 4.31543 1
gene 1 29 33 1.14134 0 87 1.14134 1
gene 1 30 31 -0.400294 0 88 -0.400294 1
gene 1 30 32 1.05396 0 89 1.05396 1
gene 1 30 33 -1.54103 0 90 -1.54103 1
genomeend 19


