/* Organism #4 Fitness: -145894112.734000 Time: 0 */
genomestart 4
trait 1 1.000000 0.253985 0.000000 0.000000 0.885604 0.928804 0.724238 0.000000 
node 1 1 1 1
node 2 1 1 1
node 3 1 1 1
node 4 1 1 1
node 5 1 1 1
node 6 1 1 1
node 7 1 1 1
node 8 1 1 1
node 9 1 1 1
node 10 1 1 1
node 11 1 1 1
node 12 1 1 1
node 13 1 1 1
node 14 1 1 1
node 15 1 1 1
node 16 1 1 1
node 17 1 1 1
node 18 1 1 1
node 19 1 1 1
node 20 1 1 1
node 21 1 1 1
node 22 1 1 1
node 23 1 1 1
node 24 1 1 1
node 25 1 1 1
node 26 1 1 1
node 27 1 1 1
node 28 1 1 1
node 29 1 1 1
node 30 1 1 3
node 31 1 0 2
node 32 1 0 2
node 33 1 0 2
gene 1 1 31 -0.440249 0 1 -0.440249 1
gene 1 1 32 2.12617 0 2 2.12617 1
gene 1 1 33 4.78353 0 3 4.78353 1
gene 1 2 31 0.621038 0 4 0.621038 1
gene 1 2 32 -1.73361 0 5 -1.73361 1
gene 1 2 33 0.753299 0 6 0.753299 1
gene 1 3 31 -0.904881 0 7 -0.904881 1
gene 1 3 32 -0.724518 0 8 -0.724518 1
gene 1 3 33 2.70895 0 9 2.70895 1
gene 1 4 31 -1.11994 0 10 -1.11994 1
gene 1 4 32 0.633637 0 11 0.633637 1
gene 1 4 33 1.07015 0 12 1.07015 1
gene 1 5 31 1.79014 0 13 1.79014 1
gene 1 5 32 -1.94742 0 14 -1.94742 1
gene 1 5 33 1.8316 0 15 1.8316 1
gene 1 6 31 -2.29555 0 16 -2.29555 1
gene 1 6 32 2.46692 0 17 2.46692 1
gene 1 6 33 -0.262411 0 18 -0.262411 1
gene 1 7 31 0.579739 0 19 0.579739 1
gene 1 7 32 1.84943 0 20 1.84943 1
gene 1 7 33 -0.656672 0 21 -0.656672 1
gene 1 8 31 -4.02891 0 22 -4.02891 1
gene 1 8 32 -0.792494 0 23 -0.792494 1
gene 1 8 33 -0.677637 0 24 -0.677637 1
gene 1 9 31 0.841469 0 25 0.841469 1
gene 1 9 32 4.35638 0 26 4.35638 1
gene 1 9 33 -4.03122 0 27 -4.03122 1
gene 1 10 31 1.25349 0 28 1.25349 1
gene 1 10 32 -1.59139 0 29 -1.59139 1
gene 1 10 33 -1.20823 0 30 -1.20823 1
gene 1 11 31 -1.52303 0 31 -1.52303 1
gene 1 11 32 -1.16268 0 32 -1.16268 1
gene 1 11 33 1.61439 0 33 1.61439 1
gene 1 12 31 0.655957 0 34 0.655957 1
gene 1 12 32 0.402988 0 35 0.402988 1
gene 1 12 33 -1.38792 0 36 -1.38792 1
gene 1 13 31 -2.41658 0 37 -2.41658 1
gene 1 13 32 -1.77667 0 38 -1.77667 1
gene 1 13 33 1.79682 0 39 1.79682 1
gene 1 14 31 -0.456136 0 40 -0.456136 1
gene 1 14 32 0.0426234 0 41 0.0426234 1
gene 1 14 33 0.724555 0 42 0.724555 1
gene 1 15 31 1.92536 0 43 1.92536 1
gene 1 15 32 -1.96162 0 44 -1.96162 1
gene 1 15 33 2.19967 0 45 2.19967 1
gene 1 16 31 1.80331 0 46 1.80331 1
gene 1 16 32 0.295113 0 47 0.295113 1
gene 1 16 33 -5 0 48 -5 1
gene 1 17 31 2.62149 0 49 2.62149 1
gene 1 17 32 -0.815037 0 50 -0.815037 1
gene 1 17 33 1.53754 0 51 1.53754 1
gene 1 18 31 -1.15824 0 52 -1.15824 1
gene 1 18 32 -2.79847 0 53 -2.79847 1
gene 1 18 33 1.57395 0 54 1.57395 1
gene 1 19 31 -0.000830519 0 55 -0.000830519 1
gene 1 19 32 -1.19775 0 56 -1.19775 1
gene 1 19 33 -1.21827 0 57 -1.21827 1
gene 1 20 31 2.42421 0 58 2.42421 1
gene 1 20 32 1.11028 0 59 1.11028 1
gene 1 20 33 -0.148225 0 60 -0.148225 1
gene 1 21 31 -1.29044 0 61 -1.29044 1
gene 1 21 32 -0.910976 0 62 -0.910976 1
gene 1 21 33 0.189307 0 63 0.189307 1
gene 1 22 31 0.41242 0 64 0.41242 1
gene 1 22 32 -0.123541 0 65 -0.123541 1
gene 1 22 33 0.412802 0 66 0.412802 1
gene 1 23 31 1.29119 0 67 1.29119 1
gene 1 23 32 -0.377805 0 68 -0.377805 1
gene 1 23 33 -0.556504 0 69 -0.556504 1
gene 1 24 31 2.59016 0 70 2.59016 1
gene 1 24 32 -0.962934 0 71 -0.962934 1
gene 1 24 33 2.09655 0 72 2.09655 1
gene 1 25 31 -3.61456 0 73 -3.61456 1
gene 1 25 32 -1.56513 0 74 -1.56513 1
gene 1 25 33 -0.932784 0 75 -0.932784 1
gene 1 26 31 -0.247281 0 76 -0.247281 1
gene 1 26 32 -0.50122 0 77 -0.50122 1
gene 1 26 33 -0.467802 0 78 -0.467802 1
gene 1 27 31 0.405117 0 79 0.405117 1
gene 1 27 32 0.761043 0 80 0.761043 1
gene 1 27 33 2.09403 0 81 2.09403 1
gene 1 28 31 0.453766 0 82 0.453766 1
gene 1 28 32 2.07382 0 83 2.07382 1
gene 1 28 33 0.850926 0 84 0.850926 1
gene 1 29 31 0.718509 0 85 0.718509 1
gene 1 29 32 -0.460613 0 86 -0.460613 1
gene 1 29 33 -0.420175 0 87 -0.420175 1
gene 1 30 31 0.274878 0 88 0.274878 1
gene 1 30 32 -1.44704 0 89 -1.44704 1
gene 1 30 33 0.907492 0 90 0.907492 1
genomeend 4


