/* Organism #15 Fitness: -142713028.918000 Time: 0 */
genomestart 15
trait 1 0.000000 0.765420 0.000000 0.885708 1.000000 0.000000 0.000000 0.257093 
node 1 1 1 1
node 2 1 1 1
node 3 1 1 1
node 4 1 1 1
node 5 1 1 1
node 6 1 1 1
node 7 1 1 1
node 8 1 1 1
node 9 1 1 1
node 10 1 1 1
node 11 1 1 1
node 12 1 1 1
node 13 1 1 1
node 14 1 1 1
node 15 1 1 1
node 16 1 1 1
node 17 1 1 1
node 18 1 1 1
node 19 1 1 1
node 20 1 1 1
node 21 1 1 1
node 22 1 1 1
node 23 1 1 1
node 24 1 1 1
node 25 1 1 1
node 26 1 1 1
node 27 1 1 1
node 28 1 1 1
node 29 1 1 1
node 30 1 1 3
node 31 1 0 2
node 32 1 0 2
node 33 1 0 2
gene 1 1 31 -0.956438 0 1 -0.956438 1
gene 1 1 32 0.476259 0 2 0.476259 1
gene 1 1 33 0.682063 0 3 0.682063 1
gene 1 2 31 -2.02403 0 4 -2.02403 1
gene 1 2 32 -0.552777 0 5 -0.552777 1
gene 1 2 33 -1.00999 0 6 -1.00999 1
gene 1 3 31 0.892339 0 7 0.892339 1
gene 1 3 32 4.33511 0 8 4.33511 1
gene 1 3 33 0.986628 0 9 0.986628 1
gene 1 4 31 -0.168048 0 10 -0.168048 1
gene 1 4 32 1.33651 0 11 1.33651 1
gene 1 4 33 -2.1567 0 12 -2.1567 1
gene 1 5 31 0.53563 0 13 0.53563 1
gene 1 5 32 0.430683 0 14 0.430683 1
gene 1 5 33 -0.771465 0 15 -0.771465 1
gene 1 6 31 -1.16195 0 16 -1.16195 1
gene 1 6 32 -0.590264 0 17 -0.590264 1
gene 1 6 33 -0.137313 0 18 -0.137313 1
gene 1 7 31 1.57469 0 19 1.57469 1
gene 1 7 32 0.614855 0 20 0.614855 1
gene 1 7 33 -0.0928864 0 21 -0.0928864 1
gene 1 8 31 -0.78577 0 22 -0.78577 1
gene 1 8 32 -0.405523 0 23 -0.405523 1
gene 1 8 33 1.51464 0 24 1.51464 1
gene 1 9 31 -0.66364 0 25 -0.66364 1
gene 1 9 32 0.147859 0 26 0.147859 1
gene 1 9 33 0.0248528 0 27 0.0248528 1
gene 1 10 31 -0.100799 0 28 -0.100799 1
gene 1 10 32 2.25196 0 29 2.25196 1
gene 1 10 33 -1.0635 0 30 -1.0635 1
gene 1 11 31 2.46179 0 31 2.46179 1
gene 1 11 32 1.87364 0 32 1.87364 1
gene 1 11 33 -0.863983 0 33 -0.863983 1
gene 1 12 31 -0.295291 0 34 -0.295291 1
gene 1 12 32 -0.957878 0 35 -0.957878 1
gene 1 12 33 2.3169 0 36 2.3169 1
gene 1 13 31 0.955817 0 37 0.955817 1
gene 1 13 32 -1.78527 0 38 -1.78527 1
gene 1 13 33 -0.63414 0 39 -0.63414 1
gene 1 14 31 0.151904 0 40 0.151904 1
gene 1 14 32 -0.906062 0 41 -0.906062 1
gene 1 14 33 0.755151 0 42 0.755151 1
gene 1 15 31 -1.64445 0 43 -1.64445 1
gene 1 15 32 -0.270863 0 44 -0.270863 1
gene 1 15 33 -0.240584 0 45 -0.240584 1
gene 1 16 31 -0.820961 0 46 -0.820961 1
gene 1 16 32 0.235685 0 47 0.235685 1
gene 1 16 33 1.18355 0 48 1.18355 1
gene 1 17 31 0.170503 0 49 0.170503 1
gene 1 17 32 0.312751 0 50 0.312751 1
gene 1 17 33 1.49424 0 51 1.49424 1
gene 1 18 31 -0.026925 0 52 -0.026925 1
gene 1 18 32 -0.952871 0 53 -0.952871 1
gene 1 18 33 0.0907515 0 54 0.0907515 1
gene 1 19 31 -1.78251 0 55 -1.78251 1
gene 1 19 32 -1.57487 0 56 -1.57487 1
gene 1 19 33 -0.287316 0 57 -0.287316 1
gene 1 20 31 0.72144 0 58 0.72144 1
gene 1 20 32 0.321904 0 59 0.321904 1
gene 1 20 33 0.0792249 0 60 0.0792249 1
gene 1 21 31 -1.65955 0 61 -1.65955 1
gene 1 21 32 1.5641 0 62 1.5641 1
gene 1 21 33 -1.40616 0 63 -1.40616 1
gene 1 22 31 -1.83879 0 64 -1.83879 1
gene 1 22 32 0.106065 0 65 0.106065 1
gene 1 22 33 -1.3792 0 66 -1.3792 1
gene 1 23 31 -0.199902 0 67 -0.199902 1
gene 1 23 32 -0.862314 0 68 -0.862314 1
gene 1 23 33 0.0365651 0 69 0.0365651 1
gene 1 24 31 0.283394 0 70 0.283394 1
gene 1 24 32 0.992718 0 71 0.992718 1
gene 1 24 33 1.31148 0 72 1.31148 1
gene 1 25 31 -0.449583 0 73 -0.449583 1
gene 1 25 32 0.257863 0 74 0.257863 1
gene 1 25 33 -1.75609 0 75 -1.75609 1
gene 1 26 31 -0.57178 0 76 -0.57178 1
gene 1 26 32 -0.756095 0 77 -0.756095 1
gene 1 26 33 1.10078 0 78 1.10078 1
gene 1 27 31 0.0138491 0 79 0.0138491 1
gene 1 27 32 0.732007 0 80 0.732007 1
gene 1 27 33 -1.20411 0 81 -1.20411 1
gene 1 28 31 0.311657 0 82 0.311657 1
gene 1 28 32 -2.57258 0 83 -2.57258 1
gene 1 28 33 0.266656 0 84 0.266656 1
gene 1 29 31 -0.832156 0 85 -0.832156 1
gene 1 29 32 0.826291 0 86 0.826291 1
gene 1 29 33 0.599709 0 87 0.599709 1
gene 1 30 31 -0.759907 0 88 -0.759907 1
gene 1 30 32 -0.314721 0 89 -0.314721 1
gene 1 30 33 -0.926356 0 90 -0.926356 1
genomeend 15


