/* Organism #22 Fitness: -146001753.000000 Time: 0 */
genomestart 22
trait 1 0.421793 0.000000 0.549978 0.000000 0.000000 0.079947 0.253262 0.140789 
node 1 1 1 1
node 2 1 1 1
node 3 1 1 1
node 4 1 1 1
node 5 1 1 1
node 6 1 1 1
node 7 1 1 1
node 8 1 1 1
node 9 1 1 1
node 10 1 1 1
node 11 1 1 1
node 12 1 1 1
node 13 1 1 1
node 14 1 1 1
node 15 1 1 1
node 16 1 1 1
node 17 1 1 1
node 18 1 1 1
node 19 1 1 1
node 20 1 1 1
node 21 1 1 1
node 22 1 1 1
node 23 1 1 1
node 24 1 1 1
node 25 1 1 1
node 26 1 1 1
node 27 1 1 1
node 28 1 1 1
node 29 1 1 1
node 30 1 1 3
node 31 1 0 2
node 32 1 0 2
node 33 1 0 2
gene 1 1 31 1.50645 0 1 1.50645 1
gene 1 1 32 0.643491 0 2 0.643491 1
gene 1 1 33 0.91115 0 3 0.91115 1
gene 1 2 31 -0.402009 0 4 -0.402009 1
gene 1 2 32 0.479908 0 5 0.479908 1
gene 1 2 33 -0.0573224 0 6 -0.0573224 1
gene 1 3 31 1.60692 0 7 1.60692 1
gene 1 3 32 0.325245 0 8 0.325245 1
gene 1 3 33 -1.25581 0 9 -1.25581 1
gene 1 4 31 -1.48688 0 10 -1.48688 1
gene 1 4 32 0.34792 0 11 0.34792 1
gene 1 4 33 -1.0108 0 12 -1.0108 1
gene 1 5 31 4.196 0 13 4.196 1
gene 1 5 32 -0.25626 0 14 -0.25626 1
gene 1 5 33 1.38924 0 15 1.38924 1
gene 1 6 31 0.501896 0 16 0.501896 1
gene 1 6 32 -3.42891 0 17 -3.42891 1
gene 1 6 33 -2.76285 0 18 -2.76285 1
gene 1 7 31 0.683673 0 19 0.683673 1
gene 1 7 32 1.19151 0 20 1.19151 1
gene 1 7 33 4.57361 0 21 4.57361 1
gene 1 8 31 -1.82446 0 22 -1.82446 1
gene 1 8 32 -1.61741 0 23 -1.61741 1
gene 1 8 33 2.06131 0 24 2.06131 1
gene 1 9 31 -1.52319 0 25 -1.52319 1
gene 1 9 32 0.208276 0 26 0.208276 1
gene 1 9 33 -1.15323 0 27 -1.15323 1
gene 1 10 31 -1.75925 0 28 -1.75925 1
gene 1 10 32 2.2814 0 29 2.2814 1
gene 1 10 33 -0.472621 0 30 -0.472621 1
gene 1 11 31 -2.10753 0 31 -2.10753 1
gene 1 11 32 -0.686569 0 32 -0.686569 1
gene 1 11 33 -2.38082 0 33 -2.38082 1
gene 1 12 31 1.34086 0 34 1.34086 1
gene 1 12 32 0.344408 0 35 0.344408 1
gene 1 12 33 3.47708 0 36 3.47708 1
gene 1 13 31 1.35931 0 37 1.35931 1
gene 1 13 32 0.260058 0 38 0.260058 1
gene 1 13 33 -0.468175 0 39 -0.468175 1
gene 1 14 31 -0.383833 0 40 -0.383833 1
gene 1 14 32 -0.646874 0 41 -0.646874 1
gene 1 14 33 1.51143 0 42 1.51143 1
gene 1 15 31 -0.788048 0 43 -0.788048 1
gene 1 15 32 1.84955 0 44 1.84955 1
gene 1 15 33 0.0767728 0 45 0.0767728 1
gene 1 16 31 1.75805 0 46 1.75805 1
gene 1 16 32 -1.19571 0 47 -1.19571 1
gene 1 16 33 0.0733151 0 48 0.0733151 1
gene 1 17 31 -3.53829 0 49 -3.53829 1
gene 1 17 32 2.44203 0 50 2.44203 1
gene 1 17 33 0.117621 0 51 0.117621 1
gene 1 18 31 -0.420001 0 52 -0.420001 1
gene 1 18 32 0.82678 0 53 0.82678 1
gene 1 18 33 -1.12298 0 54 -1.12298 1
gene 1 19 31 0.718832 0 55 0.718832 1
gene 1 19 32 0.483182 0 56 0.483182 1
gene 1 19 33 -1.26024 0 57 -1.26024 1
gene 1 20 31 0.508771 0 58 0.508771 1
gene 1 20 32 1.67355 0 59 1.67355 1
gene 1 20 33 -0.0671234 0 60 -0.0671234 1
gene 1 21 31 1.31735 0 61 1.31735 1
gene 1 21 32 0.618525 0 62 0.618525 1
gene 1 21 33 1.42924 0 63 1.42924 1
gene 1 22 31 0.28379 0 64 0.28379 1
gene 1 22 32 0.726069 0 65 0.726069 1
gene 1 22 33 -1.05982 0 66 -1.05982 1
gene 1 23 31 -1.64361 0 67 -1.64361 1
gene 1 23 32 -1.04109 0 68 -1.04109 1
gene 1 23 33 -1.25136 0 69 -1.25136 1
gene 1 24 31 -1.09079 0 70 -1.09079 1
gene 1 24 32 1.18345 0 71 1.18345 1
gene 1 24 33 1.2822 0 72 1.2822 1
gene 1 25 31 -1.1617 0 73 -1.1617 1
gene 1 25 32 -0.373051 0 74 -0.373051 1
gene 1 25 33 -2.01117 0 75 -2.01117 1
gene 1 26 31 -0.306565 0 76 -0.306565 1
gene 1 26 32 0.966464 0 77 0.966464 1
gene 1 26 33 0.0845961 0 78 0.0845961 1
gene 1 27 31 -0.618524 0 79 -0.618524 1
gene 1 27 32 0.00486147 0 80 0.00486147 1
gene 1 27 33 -0.379325 0 81 -0.379325 1
gene 1 28 31 -0.202338 0 82 -0.202338 1
gene 1 28 32 0.652242 0 83 0.652242 1
gene 1 28 33 -0.0774658 0 84 -0.0774658 1
gene 1 29 31 0.805758 0 85 0.805758 1
gene 1 29 32 -1.00396 0 86 -1.00396 1
gene 1 29 33 -1.64756 0 87 -1.64756 1
gene 1 30 31 -0.0612791 0 88 -0.0612791 1
gene 1 30 32 -0.185819 0 89 -0.185819 1
gene 1 30 33 0.508386 0 90 0.508386 1
genomeend 22


