/* Organism #13 Fitness: -143534109.576000 Time: 0 */
genomestart 13
trait 1 0.409327 0.000000 0.710820 0.000000 0.335074 0.000000 0.517639 0.000000 
node 1 1 1 1
node 2 1 1 1
node 3 1 1 1
node 4 1 1 1
node 5 1 1 1
node 6 1 1 1
node 7 1 1 1
node 8 1 1 1
node 9 1 1 1
node 10 1 1 1
node 11 1 1 1
node 12 1 1 1
node 13 1 1 1
node 14 1 1 1
node 15 1 1 1
node 16 1 1 1
node 17 1 1 1
node 18 1 1 1
node 19 1 1 1
node 20 1 1 1
node 21 1 1 1
node 22 1 1 1
node 23 1 1 1
node 24 1 1 1
node 25 1 1 1
node 26 1 1 1
node 27 1 1 1
node 28 1 1 1
node 29 1 1 1
node 30 1 1 3
node 31 1 0 2
node 32 1 0 2
node 33 1 0 2
gene 1 1 31 -0.12655 0 1 -0.12655 1
gene 1 1 32 0.919888 0 2 0.919888 1
gene 1 1 33 0.251848 0 3 0.251848 1
gene 1 2 31 -0.448479 0 4 -0.448479 1
gene 1 2 32 0.0015234 0 5 0.0015234 1
gene 1 2 33 -0.871534 0 6 -0.871534 1
gene 1 3 31 -0.963758 0 7 -0.963758 1
gene 1 3 32 5 0 8 5 1
gene 1 3 33 -0.32865 0 9 -0.32865 1
gene 1 4 31 -0.0868944 0 10 -0.0868944 1
gene 1 4 32 -0.722107 0 11 -0.722107 1
gene 1 4 33 -0.53469 0 12 -0.53469 1
gene 1 5 31 -0.0115816 0 13 -0.0115816 1
gene 1 5 32 0.797811 0 14 0.797811 1
gene 1 5 33 0.603588 0 15 0.603588 1
gene 1 6 31 1.25415 0 16 1.25415 1
gene 1 6 32 0.304384 0 17 0.304384 1
gene 1 6 33 2.51489 0 18 2.51489 1
gene 1 7 31 -1.49734 0 19 -1.49734 1
gene 1 7 32 -0.927211 0 20 -0.927211 1
gene 1 7 33 0.813272 0 21 0.813272 1
gene 1 8 31 -0.751465 0 22 -0.751465 1
gene 1 8 32 1.04895 0 23 1.04895 1
gene 1 8 33 1.06074 0 24 1.06074 1
gene 1 9 31 0.812127 0 25 0.812127 1
gene 1 9 32 -0.607254 0 26 -0.607254 1
gene 1 9 33 0.497338 0 27 0.497338 1
gene 1 10 31 2.38121 0 28 2.38121 1
gene 1 10 32 0.42588 0 29 0.42588 1
gene 1 10 33 -0.850024 0 30 -0.850024 1
gene 1 11 31 -0.0536013 0 31 -0.0536013 1
gene 1 11 32 -1.61595 0 32 -1.61595 1
gene 1 11 33 1.3957 0 33 1.3957 1
gene 1 12 31 -0.278407 0 34 -0.278407 1
gene 1 12 32 1.27614 0 35 1.27614 1
gene 1 12 33 -2.00671 0 36 -2.00671 1
gene 1 13 31 0.125974 0 37 0.125974 1
gene 1 13 32 1.88515 0 38 1.88515 1
gene 1 13 33 0.810341 0 39 0.810341 1
gene 1 14 31 1.06207 0 40 1.06207 1
gene 1 14 32 0.470231 0 41 0.470231 1
gene 1 14 33 0.715466 0 42 0.715466 1
gene 1 15 31 -0.433625 0 43 -0.433625 1
gene 1 15 32 -0.95117 0 44 -0.95117 1
gene 1 15 33 2.79452 0 45 2.79452 1
gene 1 16 31 1.58944 0 46 1.58944 1
gene 1 16 32 -1.7174 0 47 -1.7174 1
gene 1 16 33 -0.599138 0 48 -0.599138 1
gene 1 17 31 -0.228548 0 49 -0.228548 1
gene 1 17 32 -1.41829 0 50 -1.41829 1
gene 1 17 33 0.915629 0 51 0.915629 1
gene 1 18 31 -0.261512 0 52 -0.261512 1
gene 1 18 32 0.596087 0 53 0.596087 1
gene 1 18 33 -4.40378 0 54 -4.40378 1
gene 1 19 31 -2.26092 0 55 -2.26092 1
gene 1 19 32 -0.633433 0 56 -0.633433 1
gene 1 19 33 -0.244408 0 57 -0.244408 1
gene 1 20 31 -0.512404 0 58 -0.512404 1
gene 1 20 32 -0.840685 0 59 -0.840685 1
gene 1 20 33 1.48184 0 60 1.48184 1
gene 1 21 31 1.68419 0 61 1.68419 1
gene 1 21 32 0.172637 0 62 0.172637 1
gene 1 21 33 0.59222 0 63 0.59222 1
gene 1 22 31 0.367401 0 64 0.367401 1
gene 1 22 32 0.961546 0 65 0.961546 1
gene 1 22 33 -0.643024 0 66 -0.643024 1
gene 1 23 31 1.51177 0 67 1.51177 1
gene 1 23 32 3.48626 0 68 3.48626 1
gene 1 23 33 -0.386736 0 69 -0.386736 1
gene 1 24 31 0.0128996 0 70 0.0128996 1
gene 1 24 32 -0.000318387 0 71 -0.000318387 1
gene 1 24 33 -3.34033 0 72 -3.34033 1
gene 1 25 31 -0.266076 0 73 -0.266076 1
gene 1 25 32 -0.558162 0 74 -0.558162 1
gene 1 25 33 1.80658 0 75 1.80658 1
gene 1 26 31 -1.63847 0 76 -1.63847 1
gene 1 26 32 0.613678 0 77 0.613678 1
gene 1 26 33 1.58949 0 78 1.58949 1
gene 1 27 31 -2.10591 0 79 -2.10591 1
gene 1 27 32 -1.31271 0 80 -1.31271 1
gene 1 27 33 -0.809452 0 81 -0.809452 1
gene 1 28 31 1.3625 0 82 1.3625 1
gene 1 28 32 -0.0708807 0 83 -0.0708807 1
gene 1 28 33 1.39745 0 84 1.39745 1
gene 1 29 31 -0.297301 0 85 -0.297301 1
gene 1 29 32 -0.901103 0 86 -0.901103 1
gene 1 29 33 2.33101 0 87 2.33101 1
gene 1 30 31 0.857979 0 88 0.857979 1
gene 1 30 32 0.0768293 0 89 0.0768293 1
gene 1 30 33 0.980917 0 90 0.980917 1
genomeend 13


