/* Organism #18 Fitness: -144265633.176000 Time: 0 */
genomestart 18
trait 1 0.000000 0.470995 0.000000 1.000000 0.000000 0.000000 0.000000 0.000000 
node 1 1 1 1
node 2 1 1 1
node 3 1 1 1
node 4 1 1 1
node 5 1 1 1
node 6 1 1 1
node 7 1 1 1
node 8 1 1 1
node 9 1 1 1
node 10 1 1 1
node 11 1 1 1
node 12 1 1 1
node 13 1 1 1
node 14 1 1 1
node 15 1 1 1
node 16 1 1 1
node 17 1 1 1
node 18 1 1 1
node 19 1 1 1
node 20 1 1 1
node 21 1 1 1
node 22 1 1 1
node 23 1 1 1
node 24 1 1 1
node 25 1 1 1
node 26 1 1 1
node 27 1 1 1
node 28 1 1 1
node 29 1 1 1
node 30 1 1 3
node 31 1 0 2
node 32 1 0 2
node 33 1 0 2
gene 1 1 31 -3.69171 0 1 -3.69171 1
gene 1 1 32 1.72236 0 2 1.72236 1
gene 1 1 33 -0.880029 0 3 -0.880029 1
gene 1 2 31 0.123476 0 4 0.123476 1
gene 1 2 32 -0.526835 0 5 -0.526835 1
gene 1 2 33 1.39728 0 6 1.39728 1
gene 1 3 31 0.422245 0 7 0.422245 1
gene 1 3 32 2.2346 0 8 2.2346 1
gene 1 3 33 4.31512 0 9 4.31512 1
gene 1 4 31 1.54109 0 10 1.54109 1
gene 1 4 32 2.91863 0 11 2.91863 1
gene 1 4 33 0.967616 0 12 0.967616 1
gene 1 5 31 1.10195 0 13 1.10195 1
gene 1 5 32 0.679314 0 14 0.679314 1
gene 1 5 33 0.634987 0 15 0.634987 1
gene 1 6 31 0.350392 0 16 0.350392 1
gene 1 6 32 -0.142902 0 17 -0.142902 1
gene 1 6 33 -0.545465 0 18 -0.545465 1
gene 1 7 31 0.399279 0 19 0.399279 1
gene 1 7 32 -0.914819 0 20 -0.914819 1
gene 1 7 33 2.43641 0 21 2.43641 1
gene 1 8 31 -0.988016 0 22 -0.988016 1
gene 1 8 32 -0.977802 0 23 -0.977802 1
gene 1 8 33 -1.94134 0 24 -1.94134 1
gene 1 9 31 1.42474 0 25 1.42474 1
gene 1 9 32 -1.01254 0 26 -1.01254 1
gene 1 9 33 1.01675 0 27 1.01675 1
gene 1 10 31 1.79062 0 28 1.79062 1
gene 1 10 32 -2.08116 0 29 -2.08116 1
gene 1 10 33 -1.68771 0 30 -1.68771 1
gene 1 11 31 0.404045 0 31 0.404045 1
gene 1 11 32 0.78334 0 32 0.78334 1
gene 1 11 33 0.906646 0 33 0.906646 1
gene 1 12 31 -0.320979 0 34 -0.320979 1
gene 1 12 32 0.90112 0 35 0.90112 1
gene 1 12 33 -1.23196 0 36 -1.23196 1
gene 1 13 31 -4.52851 0 37 -4.52851 1
gene 1 13 32 -1.60197 0 38 -1.60197 1
gene 1 13 33 0.149802 0 39 0.149802 1
gene 1 14 31 -1.72085 0 40 -1.72085 1
gene 1 14 32 -0.410642 0 41 -0.410642 1
gene 1 14 33 0.938027 0 42 0.938027 1
gene 1 15 31 0.627884 0 43 0.627884 1
gene 1 15 32 1.52609 0 44 1.52609 1
gene 1 15 33 1.59042 0 45 1.59042 1
gene 1 16 31 -1.05581 0 46 -1.05581 1
gene 1 16 32 -1.75981 0 47 -1.75981 1
gene 1 16 33 -0.156987 0 48 -0.156987 1
gene 1 17 31 1.20102 0 49 1.20102 1
gene 1 17 32 -2.79842 0 50 -2.79842 1
gene 1 17 33 -1.71504 0 51 -1.71504 1
gene 1 18 31 -5 0 52 -5 1
gene 1 18 32 -0.170123 0 53 -0.170123 1
gene 1 18 33 1.03957 0 54 1.03957 1
gene 1 19 31 0.0814129 0 55 0.0814129 1
gene 1 19 32 -1.25893 0 56 -1.25893 1
gene 1 19 33 0.580134 0 57 0.580134 1
gene 1 20 31 0.621421 0 58 0.621421 1
gene 1 20 32 0.155194 0 59 0.155194 1
gene 1 20 33 -0.556835 0 60 -0.556835 1
gene 1 21 31 -2.19318 0 61 -2.19318 1
gene 1 21 32 0.673552 0 62 0.673552 1
gene 1 21 33 0.656329 0 63 0.656329 1
gene 1 22 31 -1.27224 0 64 -1.27224 1
gene 1 22 32 -0.661045 0 65 -0.661045 1
gene 1 22 33 -0.239264 0 66 -0.239264 1
gene 1 23 31 1.82897 0 67 1.82897 1
gene 1 23 32 5 0 68 5 1
gene 1 23 33 -1.20419 0 69 -1.20419 1
gene 1 24 31 -0.864404 0 70 -0.864404 1
gene 1 24 32 0.463977 0 71 0.463977 1
gene 1 24 33 -0.141054 0 72 -0.141054 1
gene 1 25 31 -0.0697949 0 73 -0.0697949 1
gene 1 25 32 -0.0471779 0 74 -0.0471779 1
gene 1 25 33 1.736 0 75 1.736 1
gene 1 26 31 -1.33099 0 76 -1.33099 1
gene 1 26 32 0.645209 0 77 0.645209 1
gene 1 26 33 -0.250484 0 78 -0.250484 1
gene 1 27 31 0.0580752 0 79 0.0580752 1
gene 1 27 32 -1.07237 0 80 -1.07237 1
gene 1 27 33 1.08372 0 81 1.08372 1
gene 1 28 31 0.1403 0 82 0.1403 1
gene 1 28 32 -1.84309 0 83 -1.84309 1
gene 1 28 33 0.481028 0 84 0.481028 1
gene 1 29 31 -0.253396 0 85 -0.253396 1
gene 1 29 32 -0.433192 0 86 -0.433192 1
gene 1 29 33 -1.2026 0 87 -1.2026 1
gene 1 30 31 -0.343227 0 88 -0.343227 1
gene 1 30 32 -0.692209 0 89 -0.692209 1
gene 1 30 33 -1.16617 0 90 -1.16617 1
genomeend 18


