/* Organism #6 Fitness: -145176419.000000 Time: 0 */
genomestart 6
trait 1 1.000000 0.000000 1.000000 1.000000 0.494455 0.532479 0.864362 0.000000 
node 1 1 1 1
node 2 1 1 1
node 3 1 1 1
node 4 1 1 1
node 5 1 1 1
node 6 1 1 1
node 7 1 1 1
node 8 1 1 1
node 9 1 1 1
node 10 1 1 1
node 11 1 1 1
node 12 1 1 1
node 13 1 1 1
node 14 1 1 1
node 15 1 1 1
node 16 1 1 1
node 17 1 1 1
node 18 1 1 1
node 19 1 1 1
node 20 1 1 1
node 21 1 1 1
node 22 1 1 1
node 23 1 1 1
node 24 1 1 1
node 25 1 1 1
node 26 1 1 1
node 27 1 1 1
node 28 1 1 1
node 29 1 1 1
node 30 1 1 3
node 31 1 0 2
node 32 1 0 2
node 33 1 0 2
gene 1 1 31 0.158285 0 1 0.158285 1
gene 1 1 32 2.23495 0 2 2.23495 1
gene 1 1 33 -1.29954 0 3 -1.29954 1
gene 1 2 31 -1.17459 0 4 -1.17459 1
gene 1 2 32 0.443777 0 5 0.443777 1
gene 1 2 33 -1.01831 0 6 -1.01831 1
gene 1 3 31 0.734238 0 7 0.734238 1
gene 1 3 32 -3.06394 0 8 -3.06394 1
gene 1 3 33 -0.201891 0 9 -0.201891 1
gene 1 4 31 -0.0203964 0 10 -0.0203964 1
gene 1 4 32 -1.24535 0 11 -1.24535 1
gene 1 4 33 -0.542581 0 12 -0.542581 1
gene 1 5 31 -0.973865 0 13 -0.973865 1
gene 1 5 32 1.0881 0 14 1.0881 1
gene 1 5 33 -1.99283 0 15 -1.99283 1
gene 1 6 31 -3.10712 0 16 -3.10712 1
gene 1 6 32 -1.98261 0 17 -1.98261 1
gene 1 6 33 4.97105 0 18 4.97105 1
gene 1 7 31 -0.315235 0 19 -0.315235 1
gene 1 7 32 -0.918883 0 20 -0.918883 1
gene 1 7 33 0.681005 0 21 0.681005 1
gene 1 8 31 -3.93861 0 22 -3.93861 1
gene 1 8 32 -0.315618 0 23 -0.315618 1
gene 1 8 33 -3.64107 0 24 -3.64107 1
gene 1 9 31 2.58118 0 25 2.58118 1
gene 1 9 32 0.0279193 0 26 0.0279193 1
gene 1 9 33 -1.78449 0 27 -1.78449 1
gene 1 10 31 0.947665 0 28 0.947665 1
gene 1 10 32 1.7463 0 29 1.7463 1
gene 1 10 33 -2.00442 0 30 -2.00442 1
gene 1 11 31 -3.80967 0 31 -3.80967 1
gene 1 11 32 -0.947914 0 32 -0.947914 1
gene 1 11 33 -3.03392 0 33 -3.03392 1
gene 1 12 31 0.740784 0 34 0.740784 1
gene 1 12 32 0.148328 0 35 0.148328 1
gene 1 12 33 -0.861326 0 36 -0.861326 1
gene 1 13 31 0.0545023 0 37 0.0545023 1
gene 1 13 32 0.838363 0 38 0.838363 1
gene 1 13 33 -1.54375 0 39 -1.54375 1
gene 1 14 31 -2.32278 0 40 -2.32278 1
gene 1 14 32 0.699177 0 41 0.699177 1
gene 1 14 33 2.92465 0 42 2.92465 1
gene 1 15 31 0.243504 0 43 0.243504 1
gene 1 15 32 -1.06596 0 44 -1.06596 1
gene 1 15 33 -4.56389 0 45 -4.56389 1
gene 1 16 31 0.193398 0 46 0.193398 1
gene 1 16 32 1.65279 0 47 1.65279 1
gene 1 16 33 -0.255113 0 48 -0.255113 1
gene 1 17 31 2.18132 0 49 2.18132 1
gene 1 17 32 -0.839059 0 50 -0.839059 1
gene 1 17 33 1.14219 0 51 1.14219 1
gene 1 18 31 4.40509 0 52 4.40509 1
gene 1 18 32 -1.89154 0 53 -1.89154 1
gene 1 18 33 0.84034 0 54 0.84034 1
gene 1 19 31 0.385241 0 55 0.385241 1
gene 1 19 32 0.123308 0 56 0.123308 1
gene 1 19 33 -0.636114 0 57 -0.636114 1
gene 1 20 31 -0.472378 0 58 -0.472378 1
gene 1 20 32 1.35116 0 59 1.35116 1
gene 1 20 33 -2.75874 0 60 -2.75874 1
gene 1 21 31 2.28363 0 61 2.28363 1
gene 1 21 32 -1.79058 0 62 -1.79058 1
gene 1 21 33 -0.173905 0 63 -0.173905 1
gene 1 22 31 -0.377288 0 64 -0.377288 1
gene 1 22 32 -1.09322 0 65 -1.09322 1
gene 1 22 33 -0.958644 0 66 -0.958644 1
gene 1 23 31 -0.14706 0 67 -0.14706 1
gene 1 23 32 -0.849433 0 68 -0.849433 1
gene 1 23 33 -0.0990795 0 69 -0.0990795 1
gene 1 24 31 0.0689502 0 70 0.0689502 1
gene 1 24 32 2.53823 0 71 2.53823 1
gene 1 24 33 0.905616 0 72 0.905616 1
gene 1 25 31 -0.0712272 0 73 -0.0712272 1
gene 1 25 32 -0.0679025 0 74 -0.0679025 1
gene 1 25 33 -0.202047 0 75 -0.202047 1
gene 1 26 31 1.08677 0 76 1.08677 1
gene 1 26 32 0.520783 0 77 0.520783 1
gene 1 26 33 -0.706354 0 78 -0.706354 1
gene 1 27 31 0.834037 0 79 0.834037 1
gene 1 27 32 5 0 80 5 1
gene 1 27 33 -1.6117 0 81 -1.6117 1
gene 1 28 31 0.960225 0 82 0.960225 1
gene 1 28 32 -1.3463 0 83 -1.3463 1
gene 1 28 33 2.1769 0 84 2.1769 1
gene 1 29 31 0.416904 0 85 0.416904 1
gene 1 29 32 -4.5561 0 86 -4.5561 1
gene 1 29 33 -0.705034 0 87 -0.705034 1
gene 1 30 31 0.827764 0 88 0.827764 1
gene 1 30 32 -3.02451 0 89 -3.02451 1
gene 1 30 33 -2.17417 0 90 -2.17417 1
genomeend 6


