/* Organism #6 Fitness: -145119734.146000 Time: 0 */
genomestart 6
trait 1 0.000000 0.753636 0.000000 0.000000 0.000000 0.000000 0.998422 0.411374 
node 1 1 1 1
node 2 1 1 1
node 3 1 1 1
node 4 1 1 1
node 5 1 1 1
node 6 1 1 1
node 7 1 1 1
node 8 1 1 1
node 9 1 1 1
node 10 1 1 1
node 11 1 1 1
node 12 1 1 1
node 13 1 1 1
node 14 1 1 1
node 15 1 1 1
node 16 1 1 1
node 17 1 1 1
node 18 1 1 1
node 19 1 1 1
node 20 1 1 1
node 21 1 1 1
node 22 1 1 1
node 23 1 1 1
node 24 1 1 1
node 25 1 1 1
node 26 1 1 1
node 27 1 1 1
node 28 1 1 1
node 29 1 1 1
node 30 1 1 3
node 31 1 0 2
node 32 1 0 2
node 33 1 0 2
gene 1 1 31 -0.787365 0 1 -0.787365 1
gene 1 1 32 1.87712 0 2 1.87712 1
gene 1 1 33 1.98118 0 3 1.98118 1
gene 1 2 31 2.56733 0 4 2.56733 1
gene 1 2 32 -0.681372 0 5 -0.681372 1
gene 1 2 33 -1.20832 0 6 -1.20832 1
gene 1 3 31 -1.5137 0 7 -1.5137 1
gene 1 3 32 0.811644 0 8 0.811644 1
gene 1 3 33 0.478662 0 9 0.478662 1
gene 1 4 31 -0.622174 0 10 -0.622174 1
gene 1 4 32 1.18289 0 11 1.18289 1
gene 1 4 33 -1.54934 0 12 -1.54934 1
gene 1 5 31 -0.14912 0 13 -0.14912 1
gene 1 5 32 -1.05676 0 14 -1.05676 1
gene 1 5 33 -0.364124 0 15 -0.364124 1
gene 1 6 31 -2.2582 0 16 -2.2582 1
gene 1 6 32 1.04163 0 17 1.04163 1
gene 1 6 33 -0.801424 0 18 -0.801424 1
gene 1 7 31 -2.20555 0 19 -2.20555 1
gene 1 7 32 0.421914 0 20 0.421914 1
gene 1 7 33 1.31836 0 21 1.31836 1
gene 1 8 31 -3.88139 0 22 -3.88139 1
gene 1 8 32 2.20352 0 23 2.20352 1
gene 1 8 33 0.452933 0 24 0.452933 1
gene 1 9 31 -1.28596 0 25 -1.28596 1
gene 1 9 32 -4.90739 0 26 -4.90739 1
gene 1 9 33 2.69815 0 27 2.69815 1
gene 1 10 31 0.619365 0 28 0.619365 1
gene 1 10 32 -1.23282 0 29 -1.23282 1
gene 1 10 33 -0.386336 0 30 -0.386336 1
gene 1 11 31 0.365995 0 31 0.365995 1
gene 1 11 32 -0.968359 0 32 -0.968359 1
gene 1 11 33 0.472968 0 33 0.472968 1
gene 1 12 31 -1.02959 0 34 -1.02959 1
gene 1 12 32 0.108519 0 35 0.108519 1
gene 1 12 33 0.61669 0 36 0.61669 1
gene 1 13 31 -1.69451 0 37 -1.69451 1
gene 1 13 32 -0.444052 0 38 -0.444052 1
gene 1 13 33 2.7038 0 39 2.7038 1
gene 1 14 31 -2.07012 0 40 -2.07012 1
gene 1 14 32 -1.15266 0 41 -1.15266 1
gene 1 14 33 0.281009 0 42 0.281009 1
gene 1 15 31 2.22536 0 43 2.22536 1
gene 1 15 32 -0.706834 0 44 -0.706834 1
gene 1 15 33 1.17727 0 45 1.17727 1
gene 1 16 31 -2.67619 0 46 -2.67619 1
gene 1 16 32 -1.2195 0 47 -1.2195 1
gene 1 16 33 1.52263 0 48 1.52263 1
gene 1 17 31 0.764577 0 49 0.764577 1
gene 1 17 32 0.110189 0 50 0.110189 1
gene 1 17 33 -2.92343 0 51 -2.92343 1
gene 1 18 31 -0.300153 0 52 -0.300153 1
gene 1 18 32 0.0839977 0 53 0.0839977 1
gene 1 18 33 3.20213 0 54 3.20213 1
gene 1 19 31 1.53774 0 55 1.53774 1
gene 1 19 32 0.55558 0 56 0.55558 1
gene 1 19 33 -0.0544974 0 57 -0.0544974 1
gene 1 20 31 2.18676 0 58 2.18676 1
gene 1 20 32 3.64307 0 59 3.64307 1
gene 1 20 33 0.830012 0 60 0.830012 1
gene 1 21 31 -0.428153 0 61 -0.428153 1
gene 1 21 32 -0.150905 0 62 -0.150905 1
gene 1 21 33 1.87433 0 63 1.87433 1
gene 1 22 31 0.587458 0 64 0.587458 1
gene 1 22 32 0.254462 0 65 0.254462 1
gene 1 22 33 -5 0 66 -5 1
gene 1 23 31 1.08857 0 67 1.08857 1
gene 1 23 32 0.269788 0 68 0.269788 1
gene 1 23 33 -2.06191 0 69 -2.06191 1
gene 1 24 31 0.743971 0 70 0.743971 1
gene 1 24 32 -0.170278 0 71 -0.170278 1
gene 1 24 33 2.14976 0 72 2.14976 1
gene 1 25 31 -0.747922 0 73 -0.747922 1
gene 1 25 32 -1.64498 0 74 -1.64498 1
gene 1 25 33 0.809763 0 75 0.809763 1
gene 1 26 31 -0.182233 0 76 -0.182233 1
gene 1 26 32 -1.19817 0 77 -1.19817 1
gene 1 26 33 0.0266947 0 78 0.0266947 1
gene 1 27 31 -1.72684 0 79 -1.72684 1
gene 1 27 32 0.592307 0 80 0.592307 1
gene 1 27 33 0.663023 0 81 0.663023 1
gene 1 28 31 -0.351104 0 82 -0.351104 1
gene 1 28 32 0.531463 0 83 0.531463 1
gene 1 28 33 1.11357 0 84 1.11357 1
gene 1 29 31 2.27879 0 85 2.27879 1
gene 1 29 32 0.813082 0 86 0.813082 1
gene 1 29 33 0.962616 0 87 0.962616 1
gene 1 30 31 0.107337 0 88 0.107337 1
gene 1 30 32 -0.236569 0 89 -0.236569 1
gene 1 30 33 1.81998 0 90 1.81998 1
genomeend 6


