/* Organism #8 Fitness: -145412665.626000 Time: 0 */
genomestart 8
trait 1 0.141752 0.114432 0.000000 0.503805 0.000000 0.000000 0.018141 0.000000 
node 1 1 1 1
node 2 1 1 1
node 3 1 1 1
node 4 1 1 1
node 5 1 1 1
node 6 1 1 1
node 7 1 1 1
node 8 1 1 1
node 9 1 1 1
node 10 1 1 1
node 11 1 1 1
node 12 1 1 1
node 13 1 1 1
node 14 1 1 1
node 15 1 1 1
node 16 1 1 1
node 17 1 1 1
node 18 1 1 1
node 19 1 1 1
node 20 1 1 1
node 21 1 1 1
node 22 1 1 1
node 23 1 1 1
node 24 1 1 1
node 25 1 1 1
node 26 1 1 1
node 27 1 1 1
node 28 1 1 1
node 29 1 1 1
node 30 1 1 3
node 31 1 0 2
node 32 1 0 2
node 33 1 0 2
gene 1 1 31 -3.01919 0 1 -3.01919 1
gene 1 1 32 1.71119 0 2 1.71119 1
gene 1 1 33 -0.957057 0 3 -0.957057 1
gene 1 2 31 0.810996 0 4 0.810996 1
gene 1 2 32 -0.551723 0 5 -0.551723 1
gene 1 2 33 1.4478 0 6 1.4478 1
gene 1 3 31 2.80975 0 7 2.80975 1
gene 1 3 32 -1.52799 0 8 -1.52799 1
gene 1 3 33 1.95575 0 9 1.95575 1
gene 1 4 31 0.474846 0 10 0.474846 1
gene 1 4 32 0.0895083 0 11 0.0895083 1
gene 1 4 33 -0.54209 0 12 -0.54209 1
gene 1 5 31 -0.44095 0 13 -0.44095 1
gene 1 5 32 -1.87556 0 14 -1.87556 1
gene 1 5 33 -0.140824 0 15 -0.140824 1
gene 1 6 31 -1.27068 0 16 -1.27068 1
gene 1 6 32 -1.72478 0 17 -1.72478 1
gene 1 6 33 -1.29728 0 18 -1.29728 1
gene 1 7 31 -0.332095 0 19 -0.332095 1
gene 1 7 32 1.57264 0 20 1.57264 1
gene 1 7 33 -0.161867 0 21 -0.161867 1
gene 1 8 31 5 0 22 5 1
gene 1 8 32 0.277324 0 23 0.277324 1
gene 1 8 33 0.681611 0 24 0.681611 1
gene 1 9 31 0.223579 0 25 0.223579 1
gene 1 9 32 3.77662 0 26 3.77662 1
gene 1 9 33 0.650184 0 27 0.650184 1
gene 1 10 31 0.910568 0 28 0.910568 1
gene 1 10 32 -0.576507 0 29 -0.576507 1
gene 1 10 33 0.47999 0 30 0.47999 1
gene 1 11 31 0.53396 0 31 0.53396 1
gene 1 11 32 0.606919 0 32 0.606919 1
gene 1 11 33 -0.296828 0 33 -0.296828 1
gene 1 12 31 -2.20961 0 34 -2.20961 1
gene 1 12 32 -0.112197 0 35 -0.112197 1
gene 1 12 33 0.554208 0 36 0.554208 1
gene 1 13 31 0.358015 0 37 0.358015 1
gene 1 13 32 -2.75833 0 38 -2.75833 1
gene 1 13 33 0.0165536 0 39 0.0165536 1
gene 1 14 31 0.00822265 0 40 0.00822265 1
gene 1 14 32 2.3559 0 41 2.3559 1
gene 1 14 33 -4.24954 0 42 -4.24954 1
gene 1 15 31 3.13557 0 43 3.13557 1
gene 1 15 32 2.69539 0 44 2.69539 1
gene 1 15 33 4.9926 0 45 4.9926 1
gene 1 16 31 0.19361 0 46 0.19361 1
gene 1 16 32 0.0324128 0 47 0.0324128 1
gene 1 16 33 -0.137421 0 48 -0.137421 1
gene 1 17 31 1.01119 0 49 1.01119 1
gene 1 17 32 0.701518 0 50 0.701518 1
gene 1 17 33 0.220628 0 51 0.220628 1
gene 1 18 31 -3.89879 0 52 -3.89879 1
gene 1 18 32 3.92854 0 53 3.92854 1
gene 1 18 33 -0.464566 0 54 -0.464566 1
gene 1 19 31 -0.0767453 0 55 -0.0767453 1
gene 1 19 32 1.20551 0 56 1.20551 1
gene 1 19 33 -3.27857 0 57 -3.27857 1
gene 1 20 31 -2.03692 0 58 -2.03692 1
gene 1 20 32 -2.73088 0 59 -2.73088 1
gene 1 20 33 -1.97763 0 60 -1.97763 1
gene 1 21 31 -0.587801 0 61 -0.587801 1
gene 1 21 32 -0.200236 0 62 -0.200236 1
gene 1 21 33 -0.246074 0 63 -0.246074 1
gene 1 22 31 -0.115828 0 64 -0.115828 1
gene 1 22 32 2.68753 0 65 2.68753 1
gene 1 22 33 0.752544 0 66 0.752544 1
gene 1 23 31 0.376009 0 67 0.376009 1
gene 1 23 32 -1.62732 0 68 -1.62732 1
gene 1 23 33 -1.41251 0 69 -1.41251 1
gene 1 24 31 0.780309 0 70 0.780309 1
gene 1 24 32 -3.13939 0 71 -3.13939 1
gene 1 24 33 0.0623675 0 72 0.0623675 1
gene 1 25 31 -0.195029 0 73 -0.195029 1
gene 1 25 32 -0.598629 0 74 -0.598629 1
gene 1 25 33 -1.37343 0 75 -1.37343 1
gene 1 26 31 1.27326 0 76 1.27326 1
gene 1 26 32 0.935585 0 77 0.935585 1
gene 1 26 33 -0.433681 0 78 -0.433681 1
gene 1 27 31 0.4825 0 79 0.4825 1
gene 1 27 32 -1.14731 0 80 -1.14731 1
gene 1 27 33 -0.328139 0 81 -0.328139 1
gene 1 28 31 0.56487 0 82 0.56487 1
gene 1 28 32 -1.96966 0 83 -1.96966 1
gene 1 28 33 -0.457656 0 84 -0.457656 1
gene 1 29 31 0.0620281 0 85 0.0620281 1
gene 1 29 32 0.983823 0 86 0.983823 1
gene 1 29 33 0.928994 0 87 0.928994 1
gene 1 30 31 2.17622 0 88 2.17622 1
gene 1 30 32 -0.259454 0 89 -0.259454 1
gene 1 30 33 -0.238991 0 90 -0.238991 1
genomeend 8


