/* Organism #21 Fitness: -143990776.856000 Time: 0 */
genomestart 21
trait 1 0.453637 0.132156 0.000000 0.000000 0.483212 0.188330 0.493876 0.000000 
node 1 1 1 1
node 2 1 1 1
node 3 1 1 1
node 4 1 1 1
node 5 1 1 1
node 6 1 1 1
node 7 1 1 1
node 8 1 1 1
node 9 1 1 1
node 10 1 1 1
node 11 1 1 1
node 12 1 1 1
node 13 1 1 1
node 14 1 1 1
node 15 1 1 1
node 16 1 1 1
node 17 1 1 1
node 18 1 1 1
node 19 1 1 1
node 20 1 1 1
node 21 1 1 1
node 22 1 1 1
node 23 1 1 1
node 24 1 1 1
node 25 1 1 1
node 26 1 1 1
node 27 1 1 1
node 28 1 1 1
node 29 1 1 1
node 30 1 1 3
node 31 1 0 2
node 32 1 0 2
node 33 1 0 2
gene 1 1 31 -1.06994 0 1 -1.06994 1
gene 1 1 32 -1.10167 0 2 -1.10167 1
gene 1 1 33 1.94834 0 3 1.94834 1
gene 1 2 31 0.207325 0 4 0.207325 1
gene 1 2 32 0.312607 0 5 0.312607 1
gene 1 2 33 0.257157 0 6 0.257157 1
gene 1 3 31 -0.706281 0 7 -0.706281 1
gene 1 3 32 -1.8342 0 8 -1.8342 1
gene 1 3 33 2.83418 0 9 2.83418 1
gene 1 4 31 -0.365289 0 10 -0.365289 1
gene 1 4 32 -0.773634 0 11 -0.773634 1
gene 1 4 33 0.145427 0 12 0.145427 1
gene 1 5 31 1.02546 0 13 1.02546 1
gene 1 5 32 -0.0375426 0 14 -0.0375426 1
gene 1 5 33 1.52172 0 15 1.52172 1
gene 1 6 31 -1.60587 0 16 -1.60587 1
gene 1 6 32 -2.63663 0 17 -2.63663 1
gene 1 6 33 -1.18975 0 18 -1.18975 1
gene 1 7 31 4.04559 0 19 4.04559 1
gene 1 7 32 -1.65235 0 20 -1.65235 1
gene 1 7 33 -2.82776 0 21 -2.82776 1
gene 1 8 31 -2.874 0 22 -2.874 1
gene 1 8 32 0.33511 0 23 0.33511 1
gene 1 8 33 -0.511788 0 24 -0.511788 1
gene 1 9 31 -0.0439376 0 25 -0.0439376 1
gene 1 9 32 1.94352 0 26 1.94352 1
gene 1 9 33 4.85751 0 27 4.85751 1
gene 1 10 31 -0.164488 0 28 -0.164488 1
gene 1 10 32 -1.17032 0 29 -1.17032 1
gene 1 10 33 0.0370708 0 30 0.0370708 1
gene 1 11 31 -1.44513 0 31 -1.44513 1
gene 1 11 32 0.804208 0 32 0.804208 1
gene 1 11 33 2.33838 0 33 2.33838 1
gene 1 12 31 -0.735553 0 34 -0.735553 1
gene 1 12 32 -0.971269 0 35 -0.971269 1
gene 1 12 33 0.0996323 0 36 0.0996323 1
gene 1 13 31 -2.23958 0 37 -2.23958 1
gene 1 13 32 1.28241 0 38 1.28241 1
gene 1 13 33 0.382486 0 39 0.382486 1
gene 1 14 31 -3.84214 0 40 -3.84214 1
gene 1 14 32 0.150116 0 41 0.150116 1
gene 1 14 33 0.0260733 0 42 0.0260733 1
gene 1 15 31 2.50744 0 43 2.50744 1
gene 1 15 32 0.220987 0 44 0.220987 1
gene 1 15 33 0.832868 0 45 0.832868 1
gene 1 16 31 -1.47264 0 46 -1.47264 1
gene 1 16 32 -1.06881 0 47 -1.06881 1
gene 1 16 33 0.276342 0 48 0.276342 1
gene 1 17 31 -0.525211 0 49 -0.525211 1
gene 1 17 32 -2.93664 0 50 -2.93664 1
gene 1 17 33 -0.0518585 0 51 -0.0518585 1
gene 1 18 31 3.61714 0 52 3.61714 1
gene 1 18 32 1.50463 0 53 1.50463 1
gene 1 18 33 -1.88618 0 54 -1.88618 1
gene 1 19 31 0.53142 0 55 0.53142 1
gene 1 19 32 -1.04648 0 56 -1.04648 1
gene 1 19 33 2.06453 0 57 2.06453 1
gene 1 20 31 -0.329355 0 58 -0.329355 1
gene 1 20 32 -0.221017 0 59 -0.221017 1
gene 1 20 33 -1.46752 0 60 -1.46752 1
gene 1 21 31 0.981623 0 61 0.981623 1
gene 1 21 32 -0.298025 0 62 -0.298025 1
gene 1 21 33 -0.800222 0 63 -0.800222 1
gene 1 22 31 -0.249499 0 64 -0.249499 1
gene 1 22 32 0.215823 0 65 0.215823 1
gene 1 22 33 2.82123 0 66 2.82123 1
gene 1 23 31 0.221579 0 67 0.221579 1
gene 1 23 32 -2.99107 0 68 -2.99107 1
gene 1 23 33 -0.676467 0 69 -0.676467 1
gene 1 24 31 -2.47361 0 70 -2.47361 1
gene 1 24 32 -0.950266 0 71 -0.950266 1
gene 1 24 33 -0.307394 0 72 -0.307394 1
gene 1 25 31 -2.54178 0 73 -2.54178 1
gene 1 25 32 -0.53689 0 74 -0.53689 1
gene 1 25 33 -0.483869 0 75 -0.483869 1
gene 1 26 31 -0.572001 0 76 -0.572001 1
gene 1 26 32 1.71353 0 77 1.71353 1
gene 1 26 33 0.724493 0 78 0.724493 1
gene 1 27 31 -0.637773 0 79 -0.637773 1
gene 1 27 32 0.192859 0 80 0.192859 1
gene 1 27 33 0.412404 0 81 0.412404 1
gene 1 28 31 2.12945 0 82 2.12945 1
gene 1 28 32 0.311028 0 83 0.311028 1
gene 1 28 33 0.177687 0 84 0.177687 1
gene 1 29 31 1.24246 0 85 1.24246 1
gene 1 29 32 -0.361247 0 86 -0.361247 1
gene 1 29 33 -0.998747 0 87 -0.998747 1
gene 1 30 31 -1.36721 0 88 -1.36721 1
gene 1 30 32 0.784765 0 89 0.784765 1
gene 1 30 33 -0.163455 0 90 -0.163455 1
genomeend 21


