/* Organism #7 Fitness: -144708096.184000 Time: 0 */
genomestart 7
trait 1 1.000000 0.000000 0.707258 1.000000 0.132346 0.000857 1.000000 0.000000 
node 1 1 1 1
node 2 1 1 1
node 3 1 1 1
node 4 1 1 1
node 5 1 1 1
node 6 1 1 1
node 7 1 1 1
node 8 1 1 1
node 9 1 1 1
node 10 1 1 1
node 11 1 1 1
node 12 1 1 1
node 13 1 1 1
node 14 1 1 1
node 15 1 1 1
node 16 1 1 1
node 17 1 1 1
node 18 1 1 1
node 19 1 1 1
node 20 1 1 1
node 21 1 1 1
node 22 1 1 1
node 23 1 1 1
node 24 1 1 1
node 25 1 1 1
node 26 1 1 1
node 27 1 1 1
node 28 1 1 1
node 29 1 1 1
node 30 1 1 3
node 31 1 0 2
node 32 1 0 2
node 33 1 0 2
gene 1 1 31 -0.112193 0 1 -0.112193 1
gene 1 1 32 -1.92026 0 2 -1.92026 1
gene 1 1 33 0.413943 0 3 0.413943 1
gene 1 2 31 -2.0901 0 4 -2.0901 1
gene 1 2 32 -1.56774 0 5 -1.56774 1
gene 1 2 33 -2.41272 0 6 -2.41272 1
gene 1 3 31 2.34561 0 7 2.34561 1
gene 1 3 32 0.605971 0 8 0.605971 1
gene 1 3 33 3.21931 0 9 3.21931 1
gene 1 4 31 0.192098 0 10 0.192098 1
gene 1 4 32 -0.073752 0 11 -0.073752 1
gene 1 4 33 0.324337 0 12 0.324337 1
gene 1 5 31 2.47464 0 13 2.47464 1
gene 1 5 32 -2.84639 0 14 -2.84639 1
gene 1 5 33 0.412054 0 15 0.412054 1
gene 1 6 31 -0.653847 0 16 -0.653847 1
gene 1 6 32 2.04769 0 17 2.04769 1
gene 1 6 33 -1.73479 0 18 -1.73479 1
gene 1 7 31 0.281398 0 19 0.281398 1
gene 1 7 32 -1.01486 0 20 -1.01486 1
gene 1 7 33 0.858864 0 21 0.858864 1
gene 1 8 31 -2.55638 0 22 -2.55638 1
gene 1 8 32 0.454287 0 23 0.454287 1
gene 1 8 33 -1.37947 0 24 -1.37947 1
gene 1 9 31 0.537592 0 25 0.537592 1
gene 1 9 32 1.51442 0 26 1.51442 1
gene 1 9 33 0.974947 0 27 0.974947 1
gene 1 10 31 -1.03852 0 28 -1.03852 1
gene 1 10 32 -5 0 29 -5 1
gene 1 10 33 -1.30979 0 30 -1.30979 1
gene 1 11 31 -2.54632 0 31 -2.54632 1
gene 1 11 32 1.2588 0 32 1.2588 1
gene 1 11 33 0.376275 0 33 0.376275 1
gene 1 12 31 3.22225 0 34 3.22225 1
gene 1 12 32 -0.4128 0 35 -0.4128 1
gene 1 12 33 -2.15509 0 36 -2.15509 1
gene 1 13 31 -0.918808 0 37 -0.918808 1
gene 1 13 32 0.250283 0 38 0.250283 1
gene 1 13 33 -2.52339 0 39 -2.52339 1
gene 1 14 31 -0.00246077 0 40 -0.00246077 1
gene 1 14 32 -4.09274 0 41 -4.09274 1
gene 1 14 33 -2.5636 0 42 -2.5636 1
gene 1 15 31 -3.44109 0 43 -3.44109 1
gene 1 15 32 -1.75249 0 44 -1.75249 1
gene 1 15 33 -1.02912 0 45 -1.02912 1
gene 1 16 31 -1.17701 0 46 -1.17701 1
gene 1 16 32 0.790071 0 47 0.790071 1
gene 1 16 33 0.316447 0 48 0.316447 1
gene 1 17 31 -0.154715 0 49 -0.154715 1
gene 1 17 32 -3.60795 0 50 -3.60795 1
gene 1 17 33 -0.369833 0 51 -0.369833 1
gene 1 18 31 0.635674 0 52 0.635674 1
gene 1 18 32 -1.10407 0 53 -1.10407 1
gene 1 18 33 1.53367 0 54 1.53367 1
gene 1 19 31 1.56351 0 55 1.56351 1
gene 1 19 32 0.310963 0 56 0.310963 1
gene 1 19 33 0.530964 0 57 0.530964 1
gene 1 20 31 -1.05453 0 58 -1.05453 1
gene 1 20 32 0.597981 0 59 0.597981 1
gene 1 20 33 3.23719 0 60 3.23719 1
gene 1 21 31 -0.354903 0 61 -0.354903 1
gene 1 21 32 1.44136 0 62 1.44136 1
gene 1 21 33 2.19909 0 63 2.19909 1
gene 1 22 31 -1.11518 0 64 -1.11518 1
gene 1 22 32 -1.12883 0 65 -1.12883 1
gene 1 22 33 0.904093 0 66 0.904093 1
gene 1 23 31 1.12248 0 67 1.12248 1
gene 1 23 32 0.414494 0 68 0.414494 1
gene 1 23 33 1.20446 0 69 1.20446 1
gene 1 24 31 1.67198 0 70 1.67198 1
gene 1 24 32 -0.330142 0 71 -0.330142 1
gene 1 24 33 -1.59703 0 72 -1.59703 1
gene 1 25 31 -1.972 0 73 -1.972 1
gene 1 25 32 0.388363 0 74 0.388363 1
gene 1 25 33 0.596073 0 75 0.596073 1
gene 1 26 31 -1.05054 0 76 -1.05054 1
gene 1 26 32 -0.035187 0 77 -0.035187 1
gene 1 26 33 -1.94345 0 78 -1.94345 1
gene 1 27 31 -0.81687 0 79 -0.81687 1
gene 1 27 32 0.159374 0 80 0.159374 1
gene 1 27 33 -0.0367124 0 81 -0.0367124 1
gene 1 28 31 -0.896801 0 82 -0.896801 1
gene 1 28 32 -1.10946 0 83 -1.10946 1
gene 1 28 33 -0.483637 0 84 -0.483637 1
gene 1 29 31 0.64009 0 85 0.64009 1
gene 1 29 32 0.29596 0 86 0.29596 1
gene 1 29 33 0.523044 0 87 0.523044 1
gene 1 30 31 0.775175 0 88 0.775175 1
gene 1 30 32 -0.431455 0 89 -0.431455 1
gene 1 30 33 0.121878 0 90 0.121878 1
genomeend 7


