/* Organism #23 Fitness: -144581387.974000 Time: 0 */
genomestart 23
trait 1 0.126864 0.000000 0.434785 1.000000 0.000000 0.788153 0.000000 0.839749 
node 1 1 1 1
node 2 1 1 1
node 3 1 1 1
node 4 1 1 1
node 5 1 1 1
node 6 1 1 1
node 7 1 1 1
node 8 1 1 1
node 9 1 1 1
node 10 1 1 1
node 11 1 1 1
node 12 1 1 1
node 13 1 1 1
node 14 1 1 1
node 15 1 1 1
node 16 1 1 1
node 17 1 1 1
node 18 1 1 1
node 19 1 1 1
node 20 1 1 1
node 21 1 1 1
node 22 1 1 1
node 23 1 1 1
node 24 1 1 1
node 25 1 1 1
node 26 1 1 1
node 27 1 1 1
node 28 1 1 1
node 29 1 1 1
node 30 1 1 3
node 31 1 0 2
node 32 1 0 2
node 33 1 0 2
gene 1 1 31 -0.0307669 0 1 -0.0307669 1
gene 1 1 32 -0.122929 0 2 -0.122929 1
gene 1 1 33 -0.306433 0 3 -0.306433 1
gene 1 2 31 -1.77864 0 4 -1.77864 1
gene 1 2 32 1.17887 0 5 1.17887 1
gene 1 2 33 2.19625 0 6 2.19625 1
gene 1 3 31 1.40569 0 7 1.40569 1
gene 1 3 32 1.07447 0 8 1.07447 1
gene 1 3 33 0.112645 0 9 0.112645 1
gene 1 4 31 0.162159 0 10 0.162159 1
gene 1 4 32 -2.27819 0 11 -2.27819 1
gene 1 4 33 -0.274418 0 12 -0.274418 1
gene 1 5 31 0.418369 0 13 0.418369 1
gene 1 5 32 0.573343 0 14 0.573343 1
gene 1 5 33 1.91979 0 15 1.91979 1
gene 1 6 31 0.0299757 0 16 0.0299757 1
gene 1 6 32 -0.110303 0 17 -0.110303 1
gene 1 6 33 -1.1175 0 18 -1.1175 1
gene 1 7 31 1.31498 0 19 1.31498 1
gene 1 7 32 1.41117 0 20 1.41117 1
gene 1 7 33 -0.700178 0 21 -0.700178 1
gene 1 8 31 -0.609721 0 22 -0.609721 1
gene 1 8 32 0.459046 0 23 0.459046 1
gene 1 8 33 0.541794 0 24 0.541794 1
gene 1 9 31 -1.89566 0 25 -1.89566 1
gene 1 9 32 -1.08932 0 26 -1.08932 1
gene 1 9 33 -0.463275 0 27 -0.463275 1
gene 1 10 31 -0.962184 0 28 -0.962184 1
gene 1 10 32 -1.28484 0 29 -1.28484 1
gene 1 10 33 0.756797 0 30 0.756797 1
gene 1 11 31 0.0996149 0 31 0.0996149 1
gene 1 11 32 2.4851 0 32 2.4851 1
gene 1 11 33 -5 0 33 -5 1
gene 1 12 31 0.371688 0 34 0.371688 1
gene 1 12 32 -1.31672 0 35 -1.31672 1
gene 1 12 33 0.874594 0 36 0.874594 1
gene 1 13 31 2.53744 0 37 2.53744 1
gene 1 13 32 0.80288 0 38 0.80288 1
gene 1 13 33 -0.146525 0 39 -0.146525 1
gene 1 14 31 0.42093 0 40 0.42093 1
gene 1 14 32 1.54342 0 41 1.54342 1
gene 1 14 33 -0.44198 0 42 -0.44198 1
gene 1 15 31 -1.21963 0 43 -1.21963 1
gene 1 15 32 -2.80348 0 44 -2.80348 1
gene 1 15 33 -0.16452 0 45 -0.16452 1
gene 1 16 31 -1.4674 0 46 -1.4674 1
gene 1 16 32 0.37037 0 47 0.37037 1
gene 1 16 33 -3.6957 0 48 -3.6957 1
gene 1 17 31 1.52471 0 49 1.52471 1
gene 1 17 32 0.853295 0 50 0.853295 1
gene 1 17 33 -0.02377 0 51 -0.02377 1
gene 1 18 31 -0.0815575 0 52 -0.0815575 1
gene 1 18 32 0.825539 0 53 0.825539 1
gene 1 18 33 0.639713 0 54 0.639713 1
gene 1 19 31 -0.342084 0 55 -0.342084 1
gene 1 19 32 0.362775 0 56 0.362775 1
gene 1 19 33 -0.64949 0 57 -0.64949 1
gene 1 20 31 -0.551268 0 58 -0.551268 1
gene 1 20 32 0.554783 0 59 0.554783 1
gene 1 20 33 0.356333 0 60 0.356333 1
gene 1 21 31 0.464633 0 61 0.464633 1
gene 1 21 32 -3.93182 0 62 -3.93182 1
gene 1 21 33 3.55006 0 63 3.55006 1
gene 1 22 31 0.182691 0 64 0.182691 1
gene 1 22 32 -0.353817 0 65 -0.353817 1
gene 1 22 33 0.365805 0 66 0.365805 1
gene 1 23 31 0.945623 0 67 0.945623 1
gene 1 23 32 0.0352822 0 68 0.0352822 1
gene 1 23 33 1.0365 0 69 1.0365 1
gene 1 24 31 -1.70348 0 70 -1.70348 1
gene 1 24 32 -0.472448 0 71 -0.472448 1
gene 1 24 33 -1.3881 0 72 -1.3881 1
gene 1 25 31 1.21905 0 73 1.21905 1
gene 1 25 32 0.322971 0 74 0.322971 1
gene 1 25 33 0.985995 0 75 0.985995 1
gene 1 26 31 -0.783472 0 76 -0.783472 1
gene 1 26 32 0.479907 0 77 0.479907 1
gene 1 26 33 -0.807333 0 78 -0.807333 1
gene 1 27 31 0.40597 0 79 0.40597 1
gene 1 27 32 0.0377427 0 80 0.0377427 1
gene 1 27 33 1.26738 0 81 1.26738 1
gene 1 28 31 0.5381 0 82 0.5381 1
gene 1 28 32 0.913568 0 83 0.913568 1
gene 1 28 33 0.587135 0 84 0.587135 1
gene 1 29 31 -0.155143 0 85 -0.155143 1
gene 1 29 32 -0.893381 0 86 -0.893381 1
gene 1 29 33 -1.10081 0 87 -1.10081 1
gene 1 30 31 -0.399481 0 88 -0.399481 1
gene 1 30 32 0.465311 0 89 0.465311 1
gene 1 30 33 -0.745185 0 90 -0.745185 1
genomeend 23


