/* Organism #14 Fitness: -146286599.622000 Time: 0 */
genomestart 14
trait 1 0.321209 0.242490 0.422537 0.000000 1.000000 0.399194 1.000000 0.395134 
node 1 1 1 1
node 2 1 1 1
node 3 1 1 1
node 4 1 1 1
node 5 1 1 1
node 6 1 1 1
node 7 1 1 1
node 8 1 1 1
node 9 1 1 1
node 10 1 1 1
node 11 1 1 1
node 12 1 1 1
node 13 1 1 1
node 14 1 1 1
node 15 1 1 1
node 16 1 1 1
node 17 1 1 1
node 18 1 1 1
node 19 1 1 1
node 20 1 1 1
node 21 1 1 1
node 22 1 1 1
node 23 1 1 1
node 24 1 1 1
node 25 1 1 1
node 26 1 1 1
node 27 1 1 1
node 28 1 1 1
node 29 1 1 1
node 30 1 1 3
node 31 1 0 2
node 32 1 0 2
node 33 1 0 2
gene 1 1 31 2.77927 0 1 2.77927 1
gene 1 1 32 1.32318 0 2 1.32318 1
gene 1 1 33 2.87271 0 3 2.87271 1
gene 1 2 31 1.25755 0 4 1.25755 1
gene 1 2 32 -1.48684 0 5 -1.48684 1
gene 1 2 33 2.04488 0 6 2.04488 1
gene 1 3 31 -0.94981 0 7 -0.94981 1
gene 1 3 32 -1.90584 0 8 -1.90584 1
gene 1 3 33 0.406621 0 9 0.406621 1
gene 1 4 31 0.187423 0 10 0.187423 1
gene 1 4 32 -1.90846 0 11 -1.90846 1
gene 1 4 33 3.67278 0 12 3.67278 1
gene 1 5 31 -0.696817 0 13 -0.696817 1
gene 1 5 32 2.47931 0 14 2.47931 1
gene 1 5 33 4.25886 0 15 4.25886 1
gene 1 6 31 -5 0 16 -5 1
gene 1 6 32 -2.57672 0 17 -2.57672 1
gene 1 6 33 -1.67266 0 18 -1.67266 1
gene 1 7 31 1.06661 0 19 1.06661 1
gene 1 7 32 -2.54253 0 20 -2.54253 1
gene 1 7 33 3.92994 0 21 3.92994 1
gene 1 8 31 0.958482 0 22 0.958482 1
gene 1 8 32 -1.42345 0 23 -1.42345 1
gene 1 8 33 -2.78918 0 24 -2.78918 1
gene 1 9 31 5 0 25 5 1
gene 1 9 32 -4.26645 0 26 -4.26645 1
gene 1 9 33 0.108781 0 27 0.108781 1
gene 1 10 31 -0.299269 0 28 -0.299269 1
gene 1 10 32 -0.966596 0 29 -0.966596 1
gene 1 10 33 -1.01414 0 30 -1.01414 1
gene 1 11 31 0.398314 0 31 0.398314 1
gene 1 11 32 -0.586629 0 32 -0.586629 1
gene 1 11 33 0.737349 0 33 0.737349 1
gene 1 12 31 0.065765 0 34 0.065765 1
gene 1 12 32 -0.453849 0 35 -0.453849 1
gene 1 12 33 1.76345 0 36 1.76345 1
gene 1 13 31 -0.0626836 0 37 -0.0626836 1
gene 1 13 32 3.19091 0 38 3.19091 1
gene 1 13 33 -1.15595 0 39 -1.15595 1
gene 1 14 31 1.14399 0 40 1.14399 1
gene 1 14 32 0.165364 0 41 0.165364 1
gene 1 14 33 3.78017 0 42 3.78017 1
gene 1 15 31 -2.06185 0 43 -2.06185 1
gene 1 15 32 -0.519602 0 44 -0.519602 1
gene 1 15 33 0.144499 0 45 0.144499 1
gene 1 16 31 2.57036 0 46 2.57036 1
gene 1 16 32 1.74024 0 47 1.74024 1
gene 1 16 33 5 0 48 5 1
gene 1 17 31 0.829719 0 49 0.829719 1
gene 1 17 32 -3.55812 0 50 -3.55812 1
gene 1 17 33 -0.338741 0 51 -0.338741 1
gene 1 18 31 -0.0576008 0 52 -0.0576008 1
gene 1 18 32 -2.64171 0 53 -2.64171 1
gene 1 18 33 -0.815793 0 54 -0.815793 1
gene 1 19 31 -0.601781 0 55 -0.601781 1
gene 1 19 32 -0.42841 0 56 -0.42841 1
gene 1 19 33 1.43739 0 57 1.43739 1
gene 1 20 31 -1.40151 0 58 -1.40151 1
gene 1 20 32 -3.72346 0 59 -3.72346 1
gene 1 20 33 -0.240538 0 60 -0.240538 1
gene 1 21 31 -0.129758 0 61 -0.129758 1
gene 1 21 32 -5 0 62 -5 1
gene 1 21 33 -0.552949 0 63 -0.552949 1
gene 1 22 31 -1.36891 0 64 -1.36891 1
gene 1 22 32 -4.21721 0 65 -4.21721 1
gene 1 22 33 -0.288566 0 66 -0.288566 1
gene 1 23 31 0.0843344 0 67 0.0843344 1
gene 1 23 32 -0.0908828 0 68 -0.0908828 1
gene 1 23 33 -3.78571 0 69 -3.78571 1
gene 1 24 31 -1.21391 0 70 -1.21391 1
gene 1 24 32 -0.740506 0 71 -0.740506 1
gene 1 24 33 0.985381 0 72 0.985381 1
gene 1 25 31 -0.504279 0 73 -0.504279 1
gene 1 25 32 0.044308 0 74 0.044308 1
gene 1 25 33 0.971346 0 75 0.971346 1
gene 1 26 31 -0.733823 0 76 -0.733823 1
gene 1 26 32 -0.370048 0 77 -0.370048 1
gene 1 26 33 0.574909 0 78 0.574909 1
gene 1 27 31 0.852355 0 79 0.852355 1
gene 1 27 32 -0.995734 0 80 -0.995734 1
gene 1 27 33 0.311129 0 81 0.311129 1
gene 1 28 31 0.105482 0 82 0.105482 1
gene 1 28 32 1.74558 0 83 1.74558 1
gene 1 28 33 0.288327 0 84 0.288327 1
gene 1 29 31 0.453697 0 85 0.453697 1
gene 1 29 32 -0.161481 0 86 -0.161481 1
gene 1 29 33 0.950909 0 87 0.950909 1
gene 1 30 31 -0.711147 0 88 -0.711147 1
gene 1 30 32 0.396087 0 89 0.396087 1
gene 1 30 33 -0.0889493 0 90 -0.0889493 1
genomeend 14


