/* Organism #10 Fitness: -145285746.384000 Time: 0 */
genomestart 10
trait 1 1.000000 0.341929 0.545675 0.082182 0.834930 0.000000 0.796996 0.475392 
node 1 1 1 1
node 2 1 1 1
node 3 1 1 1
node 4 1 1 1
node 5 1 1 1
node 6 1 1 1
node 7 1 1 1
node 8 1 1 1
node 9 1 1 1
node 10 1 1 1
node 11 1 1 1
node 12 1 1 1
node 13 1 1 1
node 14 1 1 1
node 15 1 1 1
node 16 1 1 1
node 17 1 1 1
node 18 1 1 1
node 19 1 1 1
node 20 1 1 1
node 21 1 1 1
node 22 1 1 1
node 23 1 1 1
node 24 1 1 1
node 25 1 1 1
node 26 1 1 1
node 27 1 1 1
node 28 1 1 1
node 29 1 1 1
node 30 1 1 3
node 31 1 0 2
node 32 1 0 2
node 33 1 0 2
gene 1 1 31 0.893642 0 1 0.893642 1
gene 1 1 32 0.739473 0 2 0.739473 1
gene 1 1 33 -0.156856 0 3 -0.156856 1
gene 1 2 31 4.88403 0 4 4.88403 1
gene 1 2 32 -0.551 0 5 -0.551 1
gene 1 2 33 -2.03936 0 6 -2.03936 1
gene 1 3 31 0.25647 0 7 0.25647 1
gene 1 3 32 -1.49267 0 8 -1.49267 1
gene 1 3 33 0.974223 0 9 0.974223 1
gene 1 4 31 0.863884 0 10 0.863884 1
gene 1 4 32 0.391984 0 11 0.391984 1
gene 1 4 33 -1.67677 0 12 -1.67677 1
gene 1 5 31 2.39716 0 13 2.39716 1
gene 1 5 32 -0.996256 0 14 -0.996256 1
gene 1 5 33 -3.35267 0 15 -3.35267 1
gene 1 6 31 1.19862 0 16 1.19862 1
gene 1 6 32 -2.37962 0 17 -2.37962 1
gene 1 6 33 0.613246 0 18 0.613246 1
gene 1 7 31 0.502668 0 19 0.502668 1
gene 1 7 32 -1.41148 0 20 -1.41148 1
gene 1 7 33 -1.25073 0 21 -1.25073 1
gene 1 8 31 -0.349186 0 22 -0.349186 1
gene 1 8 32 0.0989345 0 23 0.0989345 1
gene 1 8 33 -1.15914 0 24 -1.15914 1
gene 1 9 31 -0.131599 0 25 -0.131599 1
gene 1 9 32 -5 0 26 -5 1
gene 1 9 33 0.175663 0 27 0.175663 1
gene 1 10 31 -0.305582 0 28 -0.305582 1
gene 1 10 32 1.17291 0 29 1.17291 1
gene 1 10 33 0.839555 0 30 0.839555 1
gene 1 11 31 0.200445 0 31 0.200445 1
gene 1 11 32 0.137663 0 32 0.137663 1
gene 1 11 33 -5 0 33 -5 1
gene 1 12 31 1.38391 0 34 1.38391 1
gene 1 12 32 0.208423 0 35 0.208423 1
gene 1 12 33 1.55582 0 36 1.55582 1
gene 1 13 31 -1.92175 0 37 -1.92175 1
gene 1 13 32 0.475518 0 38 0.475518 1
gene 1 13 33 0.445466 0 39 0.445466 1
gene 1 14 31 -0.743433 0 40 -0.743433 1
gene 1 14 32 -0.30573 0 41 -0.30573 1
gene 1 14 33 0.349274 0 42 0.349274 1
gene 1 15 31 -1.88407 0 43 -1.88407 1
gene 1 15 32 1.73235 0 44 1.73235 1
gene 1 15 33 -1.21677 0 45 -1.21677 1
gene 1 16 31 1.02418 0 46 1.02418 1
gene 1 16 32 -1.1036 0 47 -1.1036 1
gene 1 16 33 -0.219671 0 48 -0.219671 1
gene 1 17 31 -1.60463 0 49 -1.60463 1
gene 1 17 32 -0.224817 0 50 -0.224817 1
gene 1 17 33 0.405416 0 51 0.405416 1
gene 1 18 31 -0.368377 0 52 -0.368377 1
gene 1 18 32 -0.843957 0 53 -0.843957 1
gene 1 18 33 -0.80527 0 54 -0.80527 1
gene 1 19 31 0.440736 0 55 0.440736 1
gene 1 19 32 -0.0142814 0 56 -0.0142814 1
gene 1 19 33 -0.77562 0 57 -0.77562 1
gene 1 20 31 2.99888 0 58 2.99888 1
gene 1 20 32 0.821397 0 59 0.821397 1
gene 1 20 33 0.0676561 0 60 0.0676561 1
gene 1 21 31 -1.61359 0 61 -1.61359 1
gene 1 21 32 2.73378 0 62 2.73378 1
gene 1 21 33 -2.51006 0 63 -2.51006 1
gene 1 22 31 -0.0457607 0 64 -0.0457607 1
gene 1 22 32 -0.38101 0 65 -0.38101 1
gene 1 22 33 -0.0274136 0 66 -0.0274136 1
gene 1 23 31 -2.07819 0 67 -2.07819 1
gene 1 23 32 0.537408 0 68 0.537408 1
gene 1 23 33 1.16558 0 69 1.16558 1
gene 1 24 31 -1.48359 0 70 -1.48359 1
gene 1 24 32 0.625306 0 71 0.625306 1
gene 1 24 33 -0.320233 0 72 -0.320233 1
gene 1 25 31 -0.293732 0 73 -0.293732 1
gene 1 25 32 -0.787344 0 74 -0.787344 1
gene 1 25 33 -0.0832539 0 75 -0.0832539 1
gene 1 26 31 0.311957 0 76 0.311957 1
gene 1 26 32 0.250662 0 77 0.250662 1
gene 1 26 33 0.096744 0 78 0.096744 1
gene 1 27 31 0.0876544 0 79 0.0876544 1
gene 1 27 32 -0.179896 0 80 -0.179896 1
gene 1 27 33 -0.651791 0 81 -0.651791 1
gene 1 28 31 -0.80726 0 82 -0.80726 1
gene 1 28 32 1.62531 0 83 1.62531 1
gene 1 28 33 -0.119188 0 84 -0.119188 1
gene 1 29 31 0.320057 0 85 0.320057 1
gene 1 29 32 0.178033 0 86 0.178033 1
gene 1 29 33 -0.78918 0 87 -0.78918 1
gene 1 30 31 -0.759684 0 88 -0.759684 1
gene 1 30 32 0.756296 0 89 0.756296 1
gene 1 30 33 0.871453 0 90 0.871453 1
genomeend 10


