/* Organism #17 Fitness: -144245111.624000 Time: 0 */
genomestart 17
trait 1 0.092711 0.242307 0.744555 0.575273 0.606845 0.000000 0.024008 0.000000 
node 1 1 1 1
node 2 1 1 1
node 3 1 1 1
node 4 1 1 1
node 5 1 1 1
node 6 1 1 1
node 7 1 1 1
node 8 1 1 1
node 9 1 1 1
node 10 1 1 1
node 11 1 1 1
node 12 1 1 1
node 13 1 1 1
node 14 1 1 1
node 15 1 1 1
node 16 1 1 1
node 17 1 1 1
node 18 1 1 1
node 19 1 1 1
node 20 1 1 1
node 21 1 1 1
node 22 1 1 1
node 23 1 1 1
node 24 1 1 1
node 25 1 1 1
node 26 1 1 1
node 27 1 1 1
node 28 1 1 1
node 29 1 1 1
node 30 1 1 3
node 31 1 0 2
node 32 1 0 2
node 33 1 0 2
gene 1 1 31 0.0537459 0 1 0.0537459 1
gene 1 1 32 1.52147 0 2 1.52147 1
gene 1 1 33 -1.41311 0 3 -1.41311 1
gene 1 2 31 1.01365 0 4 1.01365 1
gene 1 2 32 0.964794 0 5 0.964794 1
gene 1 2 33 -0.185009 0 6 -0.185009 1
gene 1 3 31 -1.23456 0 7 -1.23456 1
gene 1 3 32 0.559008 0 8 0.559008 1
gene 1 3 33 1.01307 0 9 1.01307 1
gene 1 4 31 1.57473 0 10 1.57473 1
gene 1 4 32 2.47916 0 11 2.47916 1
gene 1 4 33 -3.19199 0 12 -3.19199 1
gene 1 5 31 -1.77905 0 13 -1.77905 1
gene 1 5 32 -0.340864 0 14 -0.340864 1
gene 1 5 33 1.51372 0 15 1.51372 1
gene 1 6 31 4.91218 0 16 4.91218 1
gene 1 6 32 2.24974 0 17 2.24974 1
gene 1 6 33 0.136812 0 18 0.136812 1
gene 1 7 31 0.0542561 0 19 0.0542561 1
gene 1 7 32 5 0 20 5 1
gene 1 7 33 0.219611 0 21 0.219611 1
gene 1 8 31 1.37238 0 22 1.37238 1
gene 1 8 32 -0.853291 0 23 -0.853291 1
gene 1 8 33 0.00910005 0 24 0.00910005 1
gene 1 9 31 1.64953 0 25 1.64953 1
gene 1 9 32 4.53113 0 26 4.53113 1
gene 1 9 33 -1.64239 0 27 -1.64239 1
gene 1 10 31 -0.343017 0 28 -0.343017 1
gene 1 10 32 0.278989 0 29 0.278989 1
gene 1 10 33 -2.60839 0 30 -2.60839 1
gene 1 11 31 2.04459 0 31 2.04459 1
gene 1 11 32 1.12032 0 32 1.12032 1
gene 1 11 33 0.250946 0 33 0.250946 1
gene 1 12 31 0.148404 0 34 0.148404 1
gene 1 12 32 -0.378271 0 35 -0.378271 1
gene 1 12 33 -2.7537 0 36 -2.7537 1
gene 1 13 31 1.97145 0 37 1.97145 1
gene 1 13 32 1.12595 0 38 1.12595 1
gene 1 13 33 2.59949 0 39 2.59949 1
gene 1 14 31 -0.0410692 0 40 -0.0410692 1
gene 1 14 32 2.76973 0 41 2.76973 1
gene 1 14 33 3.25841 0 42 3.25841 1
gene 1 15 31 -3.8493 0 43 -3.8493 1
gene 1 15 32 -2.06749 0 44 -2.06749 1
gene 1 15 33 -0.747324 0 45 -0.747324 1
gene 1 16 31 1.59518 0 46 1.59518 1
gene 1 16 32 -1.91439 0 47 -1.91439 1
gene 1 16 33 -1.45215 0 48 -1.45215 1
gene 1 17 31 -0.358884 0 49 -0.358884 1
gene 1 17 32 -1.83976 0 50 -1.83976 1
gene 1 17 33 -1.19675 0 51 -1.19675 1
gene 1 18 31 -1.07437 0 52 -1.07437 1
gene 1 18 32 0.182349 0 53 0.182349 1
gene 1 18 33 -1.20289 0 54 -1.20289 1
gene 1 19 31 -3.55048 0 55 -3.55048 1
gene 1 19 32 -1.87786 0 56 -1.87786 1
gene 1 19 33 2.19511 0 57 2.19511 1
gene 1 20 31 -0.207607 0 58 -0.207607 1
gene 1 20 32 1.3026 0 59 1.3026 1
gene 1 20 33 -1.26849 0 60 -1.26849 1
gene 1 21 31 2.72635 0 61 2.72635 1
gene 1 21 32 -1.50981 0 62 -1.50981 1
gene 1 21 33 1.41686 0 63 1.41686 1
gene 1 22 31 1.94874 0 64 1.94874 1
gene 1 22 32 0.864946 0 65 0.864946 1
gene 1 22 33 -4.40716 0 66 -4.40716 1
gene 1 23 31 -2.42969 0 67 -2.42969 1
gene 1 23 32 1.0755 0 68 1.0755 1
gene 1 23 33 0.600539 0 69 0.600539 1
gene 1 24 31 -3.01953 0 70 -3.01953 1
gene 1 24 32 1.87613 0 71 1.87613 1
gene 1 24 33 0.277989 0 72 0.277989 1
gene 1 25 31 0.290747 0 73 0.290747 1
gene 1 25 32 -1.06484 0 74 -1.06484 1
gene 1 25 33 1.10564 0 75 1.10564 1
gene 1 26 31 0.533869 0 76 0.533869 1
gene 1 26 32 -0.913594 0 77 -0.913594 1
gene 1 26 33 -2.17962 0 78 -2.17962 1
gene 1 27 31 -0.987223 0 79 -0.987223 1
gene 1 27 32 1.13161 0 80 1.13161 1
gene 1 27 33 0.650902 0 81 0.650902 1
gene 1 28 31 -0.744805 0 82 -0.744805 1
gene 1 28 32 4.86375 0 83 4.86375 1
gene 1 28 33 -0.792284 0 84 -0.792284 1
gene 1 29 31 0.312642 0 85 0.312642 1
gene 1 29 32 1.0914 0 86 1.0914 1
gene 1 29 33 1.9209 0 87 1.9209 1
gene 1 30 31 0.699644 0 88 0.699644 1
gene 1 30 32 -0.580262 0 89 -0.580262 1
gene 1 30 33 -4.1068 0 90 -4.1068 1
genomeend 17


