/* Organism #6 Fitness: -143621796.160000 Time: 0 */
genomestart 6
trait 1 0.015404 1.000000 0.434534 0.000000 1.000000 0.318052 0.043085 1.000000 
node 1 1 1 1
node 2 1 1 1
node 3 1 1 1
node 4 1 1 1
node 5 1 1 1
node 6 1 1 1
node 7 1 1 1
node 8 1 1 1
node 9 1 1 1
node 10 1 1 1
node 11 1 1 1
node 12 1 1 1
node 13 1 1 1
node 14 1 1 1
node 15 1 1 1
node 16 1 1 1
node 17 1 1 1
node 18 1 1 1
node 19 1 1 1
node 20 1 1 1
node 21 1 1 1
node 22 1 1 1
node 23 1 1 1
node 24 1 1 1
node 25 1 1 1
node 26 1 1 1
node 27 1 1 1
node 28 1 1 1
node 29 1 1 1
node 30 1 1 3
node 31 1 0 2
node 32 1 0 2
node 33 1 0 2
gene 1 1 31 -0.260044 0 1 -0.260044 1
gene 1 1 32 -1.4566 0 2 -1.4566 1
gene 1 1 33 1.03749 0 3 1.03749 1
gene 1 2 31 -3.11931 0 4 -3.11931 1
gene 1 2 32 -1.02546 0 5 -1.02546 1
gene 1 2 33 0.254982 0 6 0.254982 1
gene 1 3 31 2.05608 0 7 2.05608 1
gene 1 3 32 -0.0979816 0 8 -0.0979816 1
gene 1 3 33 -4.281 0 9 -4.281 1
gene 1 4 31 -0.611838 0 10 -0.611838 1
gene 1 4 32 1.1402 0 11 1.1402 1
gene 1 4 33 4.68367 0 12 4.68367 1
gene 1 5 31 -1.44336 0 13 -1.44336 1
gene 1 5 32 2.84989 0 14 2.84989 1
gene 1 5 33 1.19377 0 15 1.19377 1
gene 1 6 31 4.61785 0 16 4.61785 1
gene 1 6 32 -1.51597 0 17 -1.51597 1
gene 1 6 33 5 0 18 5 1
gene 1 7 31 -2.44371 0 19 -2.44371 1
gene 1 7 32 -1.39822 0 20 -1.39822 1
gene 1 7 33 -0.147636 0 21 -0.147636 1
gene 1 8 31 1.16114 0 22 1.16114 1
gene 1 8 32 -0.0800805 0 23 -0.0800805 1
gene 1 8 33 0.362584 0 24 0.362584 1
gene 1 9 31 0.449625 0 25 0.449625 1
gene 1 9 32 -0.891788 0 26 -0.891788 1
gene 1 9 33 -0.291664 0 27 -0.291664 1
gene 1 10 31 -0.618395 0 28 -0.618395 1
gene 1 10 32 0.277424 0 29 0.277424 1
gene 1 10 33 2.82992 0 30 2.82992 1
gene 1 11 31 -1.70862 0 31 -1.70862 1
gene 1 11 32 2.3304 0 32 2.3304 1
gene 1 11 33 -2.61058 0 33 -2.61058 1
gene 1 12 31 0.831881 0 34 0.831881 1
gene 1 12 32 -1.35973 0 35 -1.35973 1
gene 1 12 33 -0.528524 0 36 -0.528524 1
gene 1 13 31 0.703023 0 37 0.703023 1
gene 1 13 32 -0.952008 0 38 -0.952008 1
gene 1 13 33 0.0177207 0 39 0.0177207 1
gene 1 14 31 2.96621 0 40 2.96621 1
gene 1 14 32 -2.04158 0 41 -2.04158 1
gene 1 14 33 0.138005 0 42 0.138005 1
gene 1 15 31 -1.83166 0 43 -1.83166 1
gene 1 15 32 -4.39055 0 44 -4.39055 1
gene 1 15 33 4.09237 0 45 4.09237 1
gene 1 16 31 -0.777368 0 46 -0.777368 1
gene 1 16 32 1.2192 0 47 1.2192 1
gene 1 16 33 3.63351 0 48 3.63351 1
gene 1 17 31 -1.3225 0 49 -1.3225 1
gene 1 17 32 -0.462368 0 50 -0.462368 1
gene 1 17 33 0.1526 0 51 0.1526 1
gene 1 18 31 1.317 0 52 1.317 1
gene 1 18 32 -0.992318 0 53 -0.992318 1
gene 1 18 33 0.210553 0 54 0.210553 1
gene 1 19 31 -0.306092 0 55 -0.306092 1
gene 1 19 32 2.02226 0 56 2.02226 1
gene 1 19 33 -2.02555 0 57 -2.02555 1
gene 1 20 31 -4.13441 0 58 -4.13441 1
gene 1 20 32 -2.65141 0 59 -2.65141 1
gene 1 20 33 -2.14787 0 60 -2.14787 1
gene 1 21 31 -2.12712 0 61 -2.12712 1
gene 1 21 32 -0.439073 0 62 -0.439073 1
gene 1 21 33 2.11153 0 63 2.11153 1
gene 1 22 31 5 0 64 5 1
gene 1 22 32 -1.28377 0 65 -1.28377 1
gene 1 22 33 -1.93863 0 66 -1.93863 1
gene 1 23 31 1.33006 0 67 1.33006 1
gene 1 23 32 0.30996 0 68 0.30996 1
gene 1 23 33 -1.517 0 69 -1.517 1
gene 1 24 31 -0.833238 0 70 -0.833238 1
gene 1 24 32 -1.56317 0 71 -1.56317 1
gene 1 24 33 -2.73822 0 72 -2.73822 1
gene 1 25 31 0.91627 0 73 0.91627 1
gene 1 25 32 0.791589 0 74 0.791589 1
gene 1 25 33 -0.323337 0 75 -0.323337 1
gene 1 26 31 0.0371278 0 76 0.0371278 1
gene 1 26 32 1.11348 0 77 1.11348 1
gene 1 26 33 0.675549 0 78 0.675549 1
gene 1 27 31 -0.948346 0 79 -0.948346 1
gene 1 27 32 -0.883529 0 80 -0.883529 1
gene 1 27 33 -1.10431 0 81 -1.10431 1
gene 1 28 31 -0.225744 0 82 -0.225744 1
gene 1 28 32 -1.22929 0 83 -1.22929 1
gene 1 28 33 0.246826 0 84 0.246826 1
gene 1 29 31 -1.53192 0 85 -1.53192 1
gene 1 29 32 -0.0839752 0 86 -0.0839752 1
gene 1 29 33 0.652171 0 87 0.652171 1
gene 1 30 31 -1.26285 0 88 -1.26285 1
gene 1 30 32 -0.311518 0 89 -0.311518 1
gene 1 30 33 -1.09311 0 90 -1.09311 1
genomeend 6


