genomestart 1
trait 1 0.1 0 0 0 0 0 0 0
node 1 0 1 1
node 2 0 1 1
node 3 0 1 1
node 4 0 1 1
node 5 0 1 1
node 6 0 1 1
node 7 0 1 1
node 8 0 1 1
node 9 0 1 1
node 10 0 1 1
node 11 0 1 1
node 12 0 1 1
node 13 0 1 1
node 14 0 1 1
node 15 0 1 1
node 16 0 1 1
node 17 0 1 1
node 18 0 1 1
node 19 0 1 1
node 20 0 1 1
node 21 0 1 1
node 22 0 1 1
node 23 0 1 1
node 24 0 1 1
node 25 0 1 1
node 26 0 1 1
node 27 0 1 1
node 28 0 1 1
node 29 0 1 1
node 30 0 1 3
node 31 0 0 2
node 32 0 0 2
node 33 0 0 2
gene 1 1 31 0.0 0 1 0 1
gene 1 1 32 0.0 0 2 0 1
gene 1 1 33 0.0 0 3 0 1
gene 1 2 31 0.0 0 4 0 1
gene 1 2 32 0.0 0 5 0 1
gene 1 2 33 0.0 0 6 0 1
gene 1 3 31 0.0 0 7 0 1
gene 1 3 32 0.0 0 8 0 1
gene 1 3 33 0.0 0 9 0 1
gene 1 4 31 0.0 0 10 0 1
gene 1 4 32 0.0 0 11 0 1
gene 1 4 33 0.0 0 12 0 1
gene 1 5 31 0.0 0 13 0 1
gene 1 5 32 0.0 0 14 0 1
gene 1 5 33 0.0 0 15 0 1
gene 1 6 31 0.0 0 16 0 1
gene 1 6 32 0.0 0 17 0 1
gene 1 6 33 0.0 0 18 0 1
gene 1 7 31 0.0 0 19 0 1
gene 1 7 32 0.0 0 20 0 1
gene 1 7 33 0.0 0 21 0 1
gene 1 8 31 0.0 0 22 0 1
gene 1 8 32 0.0 0 23 0 1
gene 1 8 33 0.0 0 24 0 1
gene 1 9 31 0.0 0 25 0 1
gene 1 9 32 0.0 0 26 0 1
gene 1 9 33 0.0 0 27 0 1
gene 1 10 31 0.0 0 28 0 1
gene 1 10 32 0.0 0 29 0 1
gene 1 10 33 0.0 0 30 0 1
gene 1 11 31 0.0 0 31 0 1
gene 1 11 32 0.0 0 32 0 1
gene 1 11 33 0.0 0 33 0 1
gene 1 12 31 0.0 0 34 0 1
gene 1 12 32 0.0 0 35 0 1
gene 1 12 33 0.0 0 36 0 1
gene 1 13 31 0.0 0 37 0 1
gene 1 13 32 0.0 0 38 0 1
gene 1 13 33 0.0 0 39 0 1
gene 1 14 31 0.0 0 40 0 1
gene 1 14 32 0.0 0 41 0 1
gene 1 14 33 0.0 0 42 0 1
gene 1 15 31 0.0 0 43 0 1
gene 1 15 32 0.0 0 44 0 1
gene 1 15 33 0.0 0 45 0 1
gene 1 16 31 0.0 0 46 0 1
gene 1 16 32 0.0 0 47 0 1
gene 1 16 33 0.0 0 48 0 1
gene 1 17 31 0.0 0 49 0 1
gene 1 17 32 0.0 0 50 0 1
gene 1 17 33 0.0 0 51 0 1
gene 1 18 31 0.0 0 52 0 1
gene 1 18 32 0.0 0 53 0 1
gene 1 18 33 0.0 0 54 0 1
gene 1 19 31 0.0 0 55 0 1
gene 1 19 32 0.0 0 56 0 1
gene 1 19 33 0.0 0 57 0 1
gene 1 20 31 0.0 0 58 0 1
gene 1 20 32 0.0 0 59 0 1
gene 1 20 33 0.0 0 60 0 1
gene 1 21 31 0.0 0 61 0 1
gene 1 21 32 0.0 0 62 0 1
gene 1 21 33 0.0 0 63 0 1
gene 1 22 31 0.0 0 64 0 1
gene 1 22 32 0.0 0 65 0 1
gene 1 22 33 0.0 0 66 0 1
gene 1 23 31 0.0 0 67 0 1
gene 1 23 32 0.0 0 68 0 1
gene 1 23 33 0.0 0 69 0 1
gene 1 24 31 0.0 0 70 0 1
gene 1 24 32 0.0 0 71 0 1
gene 1 24 33 0.0 0 72 0 1
gene 1 25 31 0.0 0 73 0 1
gene 1 25 32 0.0 0 74 0 1
gene 1 25 33 0.0 0 75 0 1
gene 1 26 31 0.0 0 76 0 1
gene 1 26 32 0.0 0 77 0 1
gene 1 26 33 0.0 0 78 0 1
gene 1 27 31 0.0 0 79 0 1
gene 1 27 32 0.0 0 80 0 1
gene 1 27 33 0.0 0 81 0 1
gene 1 28 31 0.0 0 82 0 1
gene 1 28 32 0.0 0 83 0 1
gene 1 28 33 0.0 0 84 0 1
gene 1 29 31 0.0 0 85 0 1
gene 1 29 32 0.0 0 86 0 1
gene 1 29 33 0.0 0 87 0 1
gene 1 30 31 0.0 0 88 0 1
gene 1 30 32 0.0 0 89 0 1
gene 1 30 33 0.0 0 90 0 1
genomeend 1
